603 100
<START> 0.23798014 0.15160865 -0.24048722 0.03227944 -0.3755312 -0.66325337 0.08885241 1.0070676 -0.30883148 -0.5502627 0.25718546 -0.48879272 -0.491033 0.105720736 -0.007057241 0.017134426 0.08591976 -0.49836516 -0.3380315 -1.1096617 -0.07945544 0.22838615 0.49190503 0.113343604 -0.36608526 0.16192938 -0.23867412 -0.11644955 -0.17799085 -0.07585188 0.22998872 -0.27864808 0.845064 -0.4440101 -0.5672206 0.006757776 0.40412885 0.019868867 -0.41158256 -0.6171635 -0.014561031 0.3646063 -0.3110824 -0.26183683 0.50975585 -0.4804335 -0.6511837 0.2552602 0.55015266 0.58154213 -0.18073618 -0.24654594 0.4687638 0.35055164 0.08820383 -0.22120719 0.27536768 -0.5328 -0.18282436 -0.059355613 0.1330396 -0.26672643 0.3361954 0.17744413 -0.34431982 0.22294617 -0.03116989 0.4369001 -0.7477083 -0.1661428 -0.12349212 0.39417124 0.39026284 -0.13366799 0.5003488 0.21076654 0.32656273 -0.026331365 -0.39931306 -0.19656843 0.30034572 -0.108823866 -0.3854277 0.5531084 -0.5913016 -0.24550608 0.017495647 0.31874815 0.0035493798 0.91507447 0.39981923 0.4322848 0.13094164 0.14065593 1.436066 0.4241504 -0.30315682 -0.42690933 0.41312516 0.025565438
<END> 0.08746153 -0.16981734 0.2157732 0.017909497 0.49383754 -0.21304981 0.0854741 0.15018483 -0.2129351 0.12788342 -0.5192309 -0.36979467 0.2313153 0.12963615 -0.0030160807 -0.04977735 -0.2655193 0.40186813 0.51722616 -0.6043827 0.43540797 0.15403572 0.34642926 -0.10165159 0.5769233 0.31782955 0.26630512 0.051280435 -0.29693913 0.64181036 0.50751096 0.13892826 0.35650033 -0.5563442 0.21266706 0.8951955 -0.1888599 -0.16899213 -0.025821136 -0.6709349 0.38970223 -0.75762624 0.09718396 0.46600148 0.60883826 0.15048186 0.13897844 -0.7697415 -0.054227263 -0.120646216 0.56272423 -0.5034361 -0.51748955 -0.36324713 -0.23998588 0.4177471 -0.0786671 -0.004261636 -0.3426808 0.10142696 -0.4540924 0.038177453 -0.020197213 0.006517752 -0.14635849 0.4764122 0.96325046 0.7238915 -0.55824226 0.6873679 -0.41725925 -0.8263235 0.38738334 0.5607987 0.5734785 -0.17457584 -0.017107848 -0.03423887 -0.09975859 0.5256325 -0.0070085963 -0.0793708 -0.37347347 -0.46390077 -0.06881784 -0.14319804 -0.13785677 0.07692391 0.37373427 -0.68547994 0.30583617 -0.11715773 -0.03359134 -0.12995294 -0.1977936 0.3843115 0.7157174 -0.20982392 -0.24463344 -0.22831267
to 0.0953361 0.15948664 -0.12283053 -0.28142917 0.55324745 -0.4139447 0.21726207 0.5483211 -0.06401877 -0.03096644 -0.17199866 -0.7097842 0.14454322 0.009587057 0.031277098 -0.26420063 0.20981148 -0.13924515 0.1107603 -0.63964456 0.18454754 0.10622424 0.45576397 -0.28789136 0.09564955 0.42937976 0.011945787 -0.06886895 -0.29169253 0.2116272 0.37898174 -0.10221392 0.11473491 -0.3646493 -0.24141733 0.26157817 0.12434956 -0.17052671 -0.14118165 -0.45421517 -0.015805902 -0.097970575 -0.040218025 0.11664311 0.46564618 0.08708395 -0.025450647 -0.4452835 -0.03044136 -0.004764445 0.4060876 -0.22315627 -0.13282317 -0.2680209 -0.013162359 -0.07162378 0.19936493 -0.124844454 -0.27982238 0.05661029 -0.31144053 -0.54008013 0.3671773 0.08554167 -0.14788958 0.25313893 0.35759982 0.44584146 -0.6335596 0.20622706 -0.20906258 -0.27817595 0.47188398 0.4639387 0.20424055 0.043295845 0.023047388 -0.05931443 -0.40643218 0.083045214 -0.08206297 0.06337138 -0.17103292 -0.06219187 -0.06298818 -0.12560369 0.14968699 0.10946249 0.3335275 -0.13435696 0.4815677 0.34216526 0.49385935 -0.27312234 0.44689435 0.16577974 0.5325061 -0.0023092937 0.08010929 -0.3223904
from 0.08839243 0.13723399 -0.08963538 -0.17132662 0.31341174 -0.5277148 0.1816688 0.68267864 -0.023202313 -0.17881157 -0.16117327 -0.5082005 0.04758866 0.009810959 0.07262313 -0.17347454 0.19113521 -0.2376823 0.07331452 -0.68064886 0.20240802 0.122143015 0.45277035 -0.11637609 -0.06745651 0.48464304 -0.08432935 -0.045470055 -0.20031202 0.21806327 0.37307855 -0.07230577 0.2044202 -0.39418036 -0.22846255 0.3082459 0.18383831 -0.15704092 -0.26698238 -0.4408818 0.04062439 0.07550886 -0.0002463763 0.011508947 0.507063 -0.01773788 -0.14946225 -0.4012595 0.08875838 -0.008085016 0.29427686 -0.108325765 -0.076890185 -0.13023731 0.07233275 -0.10846638 0.21614952 -0.13463564 -0.1638557 0.016015295 -0.22969478 -0.463207 0.37362108 0.10472098 -0.047695916 0.15602982 0.26177767 0.3681623 -0.63719594 0.035830017 -0.23952027 -0.20172024 0.30890015 0.37689918 0.29377857 0.011198798 0.06256272 0.0496895 -0.3771341 0.098119356 -0.02825796 0.19127451 -0.11695997 0.0043682232 -0.20067526 -0.099296376 0.21295485 0.22043972 0.20515469 -0.010214259 0.44845384 0.2812352 0.33179942 -0.17794211 0.58159393 0.12999538 0.29460335 -0.07195855 0.071044974 -0.1649764
flights 0.067316785 -0.21354106 -0.09796956 0.034859482 -0.35049853 -0.4262192 -0.10258075 0.8797762 -0.42029175 -0.17443232 -0.40930817 -0.07991302 -0.093025476 0.095074095 0.071963236 -0.028805295 -0.17582522 -0.08570885 0.10274187 -0.9548139 0.2206299 -0.12170265 0.305278 0.18447925 -0.05743621 0.2243921 -0.04848264 0.21987283 -0.17714323 0.2794599 0.49603406 0.0666501 0.45029557 -0.45720735 -0.109418 0.18417469 0.21862698 -0.13072604 -0.34398338 -0.31831875 0.1833352 0.065363705 -0.0941867 -0.07937992 0.5436945 -0.33515313 -0.15266089 -0.087332554 0.31422 0.074706465 0.14026591 -0.056647755 0.119852334 0.14897878 -0.04054975 -0.101666905 -0.12083135 -0.2866349 0.037957024 -0.14167382 0.23688185 -0.08211453 0.29096434 0.096570164 -0.13676757 0.3466446 0.5243426 0.35244134 -0.6690989 0.3616797 -0.37936506 0.16840963 0.022728618 0.07234708 0.55662286 0.24294259 0.22459547 0.27925235 -0.06549189 0.15794535 0.20977001 -0.09844062 -0.42860964 0.20627242 -0.61559147 -0.21696962 -0.03382379 0.27935913 0.061931435 0.22551863 0.1981748 0.003047012 0.08698724 -0.025553152 0.7436212 -0.1026359 0.009881513 -0.4212869 0.256648 0.16675414
the 0.33630785 -0.106763445 0.0037951448 0.22421147 -0.46481183 -0.39327684 -0.054044295 0.6560743 -0.39697784 -0.3507348 -0.015971798 -0.121921055 -0.26983252 0.13506077 0.12933937 0.24344358 -0.3284657 -0.014432977 -0.08359295 -0.883559 0.042886134 0.10699822 0.2530372 0.23045632 -0.17505741 0.05888911 0.068369515 0.004540668 -0.16333416 0.2566493 0.3282444 -0.23606028 0.7525134 -0.40087068 -0.08084136 0.34061295 0.1987912 0.061275546 -0.19201839 -0.54608965 0.30292574 -0.08741871 -0.2787932 0.021269865 0.51078486 -0.3437672 -0.32040396 0.038392235 0.43993595 0.29760504 -0.12866755 -0.34899324 0.10877709 0.118379176 -0.12944129 0.11657999 0.030463705 -0.38293564 -0.05205389 -0.123340845 0.21289289 0.24797195 0.019965317 0.15170312 -0.20613399 0.36083663 0.3320247 0.5180382 -0.48099768 0.09388572 -0.19504292 -0.01899848 0.18604876 0.034987774 0.5942078 0.21130854 0.23960677 0.0049826982 -0.1334429 0.18188794 0.35575166 -0.2529279 -0.41457433 0.17125726 -0.52445394 -0.27728403 -0.2352469 0.1488252 -0.017764185 0.38845196 0.2357346 -0.0010566298 -0.23583736 0.29558864 0.7656244 0.36048606 -0.15780066 -0.3894678 0.061943192 0.06740523
on 0.121289305 -0.0140716145 0.07195862 -0.17098778 0.4686227 -0.38433838 0.26327178 0.22210652 -0.10342081 0.06707424 -0.21101299 -0.5898753 0.14332576 0.026328502 -0.103056654 -0.2864841 0.04220192 0.0663089 0.26611567 -0.70881677 0.28580734 0.16267398 0.50142205 -0.19601299 0.2978319 0.36287057 0.021675816 -0.15611708 -0.29766583 0.23842585 0.28327605 0.1574937 0.34595877 -0.3766076 -0.08685327 0.5017652 -0.049034562 -0.15953214 -0.25975415 -0.62316483 0.07808365 -0.34902713 0.055002786 0.15422925 0.453852 0.06987686 -0.044968512 -0.54963154 -0.10767383 0.045592006 0.38647938 -0.33785936 -0.1664684 -0.24560194 -0.045801375 0.058623 0.06308596 -0.0037166874 -0.43181136 0.22063658 -0.43683985 -0.4408045 0.268408 0.041010145 -0.23517981 0.27326596 0.45882055 0.48852688 -0.686415 0.41990507 -0.27325788 -0.43396094 0.46394995 0.35353225 0.31891713 -0.16310316 0.029309586 -0.0270934 -0.3680372 0.24809292 -0.058793124 0.07744857 -0.26397148 -0.23172924 -0.060846332 0.0062841373 0.13481772 0.25481054 0.38230678 -0.27911103 0.34044784 0.18038717 0.12209881 -0.11518237 0.1586761 0.32145882 0.5347144 -0.19175434 -0.06446912 -0.34539577
what 0.7137443 0.047890875 0.04052855 0.32838732 -0.61032146 -0.4505261 -0.06695332 0.61079687 -0.5607076 -0.5973381 0.31233522 -0.2141332 -0.38970956 0.27546892 0.17215362 0.33135298 -0.344574 0.07285485 -0.44440377 -1.1557918 -0.049266893 0.16053674 0.3644926 0.10675547 -0.36346766 -0.07236914 0.050355796 -0.095329106 -0.21859321 0.12355457 0.07684892 -0.34066784 1.1263747 -0.32157812 -0.2032702 0.1374771 0.17215256 0.22813629 -0.3399454 -0.5925747 0.2508297 0.026074931 -0.36587918 -2.4643377e-05 0.4447771 -0.6242015 -0.541725 0.24953237 0.6524257 0.64905554 -0.5034016 -0.51964915 0.37452912 0.056515504 -0.07022391 0.26257843 -0.08818038 -0.43768042 -0.09081867 -0.06642662 0.406693 0.33935675 -0.12866077 0.41213882 -0.29304853 0.44305146 -0.050892573 0.6598734 -0.35310486 -0.07950244 -0.005463066 0.12192339 0.3454816 -0.029485831 0.55790836 0.30442622 0.43448272 -0.17766571 -0.13390729 -0.070217796 0.42666078 -0.4137542 -0.6829737 0.42610157 -0.5938914 -0.27220392 -0.154236 0.080537476 0.014509671 0.7934106 0.24537975 -0.022867803 -0.5074565 0.5785253 0.9675907 0.601656 -0.42582133 -0.5595465 0.083244026 -0.06246656
flight 0.22025196 0.47588003 -0.11951053 -0.19483538 0.5810395 -0.4179284 0.34885263 0.23562936 0.09326909 -0.1419851 0.23968919 -0.8481311 -0.027159559 -0.020002414 -0.043532424 -0.24739745 0.20707649 -0.18112701 -0.13444309 -0.61362606 0.04107594 0.37085396 0.55993015 -0.3272759 -0.049897883 0.40748584 -0.19516404 -0.41850764 -0.20828953 0.019726297 0.059332423 -0.19817276 0.42314205 -0.23483787 -0.31620353 0.2741908 0.039601225 0.060902 -0.117337205 -0.6701016 -0.13075781 -0.07038357 -0.1641493 0.1223967 0.24771051 -0.06263371 -0.29153895 -0.3162007 0.09825138 0.21656217 0.20313264 -0.42139798 0.1358579 -0.2243698 0.09809212 -0.012254411 0.34233537 -0.19547957 -0.42418882 0.12856239 -0.43183538 -0.5823491 0.25532115 0.13435078 -0.2820854 0.11402407 -0.077999845 0.49921605 -0.57682115 -0.07646599 -0.06381161 -0.27379024 0.6992193 0.3943356 0.059082545 -0.060951155 0.02283839 -0.279103 -0.5268827 -0.09226474 -0.14304247 0.099790215 -0.04061948 0.06096137 0.07760711 -0.0697355 0.25328898 0.10543673 0.22330508 0.18933876 0.62326485 0.47984084 0.3396922 -0.080621414 0.513286 0.5321347 0.36672384 0.14450774 -0.0948569 -0.446475
me 0.1071905 -0.44676173 -0.095071845 0.24194944 -0.6448625 -0.78441596 -0.16983306 1.358765 -0.4947496 -0.41554677 -0.3682949 -0.23089091 -0.23547585 0.13087288 0.118017554 0.24412644 -0.14678377 -0.3322329 0.12181195 -1.2722884 0.24279052 0.04194013 0.24794798 0.23160899 -0.11569156 0.34543642 -0.12439167 0.33908 -0.1744631 0.31258133 0.7596136 0.08531847 0.68436337 -0.43334633 -0.31209686 0.2895486 0.4440289 -0.20243785 -0.38485783 -0.39417037 0.36088455 0.30938476 -0.21441063 -0.3037324 0.73320943 -0.3337118 -0.3299854 0.06348162 0.52732015 0.20413916 0.09552756 0.061070945 0.14231277 0.34078917 0.032303553 -0.22727337 0.013977293 -0.33836278 0.23762724 -0.09102025 0.23614506 0.015912848 0.39304045 0.0925959 -0.19955099 0.30850518 0.47769773 0.21000038 -0.8015685 0.24150409 -0.35708073 0.2699075 -0.08088846 -0.14424904 0.7521512 0.18238977 0.40415832 0.22439002 -0.04419753 0.2082575 0.39779484 -0.02380968 -0.4977837 0.4176065 -0.80500907 -0.3252467 -0.17504747 0.3625554 0.09318247 0.52698356 0.17000394 0.102456436 0.10895432 0.12276255 1.1555372 -0.102895305 -0.20936558 -0.4336145 0.48952824 0.29613596
i 0.6406798 0.9491479 -0.19172937 -0.44529077 0.80850434 -0.9163912 0.6473814 0.50152165 0.10452373 -0.50590694 0.79536664 -1.700045 -0.24156496 -0.045890078 -0.119133204 -0.5730487 0.5947408 -0.47180438 -0.56792915 -1.0261976 -0.13121124 0.55430204 1.108568 -0.5951681 -0.4486591 0.53234506 -0.46409884 -0.7918391 -0.21461545 -0.28125104 -0.22662884 -0.47873542 0.8700976 -0.2537177 -0.71622986 0.051835477 0.31551045 0.24731946 -0.3480567 -0.92494285 -0.4569642 0.18274136 -0.40259504 0.056875873 0.1367836 -0.3209109 -0.7194212 -0.18306582 0.22169349 0.7208552 0.048125733 -0.6538224 0.60775834 -0.3406045 0.33950356 -0.17702757 0.6358941 -0.24674675 -0.71177924 0.47640848 -0.66454333 -1.2076923 0.48742062 0.30871648 -0.6091702 0.13150601 -0.6910349 0.65525436 -0.8902 -0.35535228 0.19343862 -0.027100217 1.2055717 0.33400452 -0.03845021 -0.05008485 0.22101237 -0.51463634 -0.9215439 -0.45112213 -0.268036 0.32435644 -0.053083718 0.3746422 0.07810506 -0.014464651 0.41918507 0.31588283 0.528229 0.7344681 1.0616608 0.8984156 0.61972517 -0.07289084 1.1383232 0.8307589 0.46760914 0.031073052 -0.028963659 -0.9543562
show 0.23817758 -0.22210827 -0.0064340057 0.15720503 -0.6365242 -0.5930098 -0.17735162 1.2372628 -0.39283627 -0.31131995 -0.3180503 0.0021376256 -0.27348855 0.07270293 0.21765988 0.08194767 -0.17756124 -0.2573685 -0.08626709 -1.0000931 0.06862985 -0.21250989 0.24732399 0.24290559 -0.46190378 0.21880625 -0.13275976 0.25512317 -0.012278641 0.23674993 0.5303626 -0.08069781 0.5055512 -0.4715192 -0.14269191 -0.02097601 0.4089855 -0.1603711 -0.3901703 -0.3638569 0.13491368 0.36146167 -0.14454697 -0.16994376 0.5230168 -0.39225978 -0.2028397 0.05041296 0.4577203 0.14035319 -0.025423216 0.029345682 0.25127658 0.26858538 0.03087569 -0.16520862 0.060006693 -0.25926235 0.26039538 -0.15654308 0.3530158 -0.04990929 0.2968658 0.13618402 -0.119289055 0.33091152 0.40879643 0.28882995 -0.73592323 0.198182 -0.39541802 0.35736543 -0.07934917 -0.025934901 0.64886683 0.2877716 0.33051327 0.3721819 -0.1622691 0.0788355 0.2823762 0.107286654 -0.4461806 0.34048527 -0.7340865 -0.22717947 -0.067215845 0.25540364 0.0519683 0.53339297 0.23023562 -0.086117424 0.015283543 0.09143415 1.0567294 -0.20702372 -0.27443653 -0.3794947 0.28075552 0.29307738
san 0.102572456 -0.025793046 0.14843786 -0.07284154 0.36652496 -0.30929166 0.035032887 0.5218078 0.15274045 -0.041363686 -0.4633927 -0.45974213 -0.06495446 -0.016459817 -0.1130022 -0.18802717 0.14662535 0.007266902 0.34926882 -0.6336316 0.14027359 0.3059786 0.54423535 -0.05884288 0.08181812 0.7365599 -0.22395867 0.082824536 -0.1783568 0.564291 0.37697542 0.05162027 0.346981 -0.46628082 -0.14442107 0.2928745 -0.048678774 -0.1508583 -0.22873376 -0.4094054 0.019942101 0.010288057 0.024148475 0.25831923 0.28821865 -0.025631538 -0.07383606 -0.6449812 -0.052533202 -0.098965056 0.3345701 -0.30695638 -0.22824697 -0.14115551 0.02694769 -0.08151256 0.11538634 -0.20788777 -0.023207566 0.05925229 -0.48569724 -0.48517275 0.3626171 0.2675282 0.0074058506 0.23658288 0.45230493 0.3374045 -0.68615943 0.19918527 -0.36050868 -0.19848491 0.33287156 0.35692376 0.3510163 -0.15928043 0.140946 -0.08874319 -0.32270867 0.19117309 -0.21981092 0.2849403 -0.036388785 -0.08632878 -0.2204615 -0.29608777 0.32545042 0.14924717 0.10141637 -0.07603739 0.50503534 0.10463735 0.29755625 -0.2469793 0.36270654 0.2417727 0.43994874 0.22898528 -0.08781935 0.079753324
boston 0.12580225 0.0247341 0.073305234 0.06889703 0.19541648 -0.29287812 0.009395829 0.27342516 -0.016817518 -0.07984211 -0.2967063 -0.29307905 -0.015802164 0.048312187 -0.005091888 -0.04840563 0.022245474 0.039870963 0.24748854 -0.5329711 0.17617062 0.28668976 0.4307748 -0.04400072 0.13234623 0.45130682 -0.13520117 -0.01413109 -0.113732316 0.45495543 0.31712908 0.034172423 0.43157837 -0.43891954 -0.018979704 0.44856444 -0.074800484 -0.006079218 -0.14353324 -0.42495692 0.12990224 -0.1876508 0.046557866 0.2614961 0.29696837 -0.05372771 -0.18756126 -0.47054154 0.116969325 -0.07784899 0.23548098 -0.2660867 -0.18839209 -0.09248515 0.0103406785 0.107064575 0.096318826 -0.17343564 -0.107382715 0.043211427 -0.30402955 -0.22332385 0.11418789 0.24507098 0.038048234 0.20902345 0.35714206 0.39527953 -0.4199172 0.15315601 -0.320609 -0.3270936 0.23480737 0.32808527 0.38455006 -0.083403796 0.09257185 -0.013275183 -0.13093492 0.21046203 -0.06917094 0.12826377 -0.026651125 -0.13366266 -0.13024543 -0.19457841 0.15738668 0.16918062 0.14258668 -0.044924144 0.4531195 0.04529414 0.041349124 -0.08676247 0.19935794 0.27947697 0.2523304 0.103763744 -0.1607009 -0.014858825
a 0.3181026 0.57651323 -0.15917596 -0.35509712 0.7534328 -0.5412507 0.45821735 0.32626992 0.1427882 -0.1847765 0.3609703 -1.0792184 -0.038597748 -0.05397111 -0.091270395 -0.34387493 0.31071508 -0.25089243 -0.16233176 -0.64050454 0.12873507 0.37594646 0.5431341 -0.42349842 -0.10180784 0.42749527 -0.1474019 -0.51434696 -0.22514276 -0.024624923 -0.040119164 -0.23080057 0.40708202 -0.27850798 -0.39538008 0.25661963 0.13303284 0.052749734 -0.14274867 -0.6961704 -0.15760358 -0.11498082 -0.1398718 0.14599782 0.28437912 -0.0029889503 -0.28844714 -0.34182924 0.048507057 0.25610623 0.28410807 -0.44865084 0.20311777 -0.35811278 0.09622058 -0.040783625 0.42190582 -0.1046913 -0.5663147 0.30639568 -0.49812764 -0.7215821 0.25036013 0.092429295 -0.30796298 0.11928739 -0.115196325 0.52365625 -0.6406834 -0.109834656 -0.0018777502 -0.38566983 0.81731075 0.38809326 0.039753325 -0.08149843 0.029360233 -0.29017434 -0.5889955 -0.10675641 -0.19857338 0.15147325 -0.09413426 0.0055281403 0.09900258 0.065043256 0.29025906 0.16629724 0.34079477 0.084549524 0.7463177 0.58247733 0.44453397 -0.04001542 0.47871363 0.5022955 0.4337385 0.13067056 -0.09190169 -0.56652737
denver 0.13837855 0.029860491 0.09780773 0.04561385 0.21441254 -0.30617818 0.049013782 0.28661057 -0.090952806 -0.057329126 -0.26897714 -0.36345077 0.012044315 0.07418644 -0.026326533 -0.096836634 -0.030643372 0.0857575 0.24375081 -0.5486209 0.20251685 0.23664698 0.37333438 -0.052030023 0.13294007 0.37216166 -0.07661421 -0.008510874 -0.12514982 0.3909812 0.2980752 0.023537878 0.41015643 -0.42264935 0.0061203204 0.47740299 -0.03150294 -0.050403327 -0.14018922 -0.46845865 0.17159577 -0.250429 0.019556658 0.2605285 0.33265963 -0.02586304 -0.16398448 -0.46726072 0.09662876 -0.039060466 0.25255707 -0.31269476 -0.150028 -0.123331465 -0.0045458493 0.13823962 0.07926807 -0.14153321 -0.1499667 0.07354128 -0.30536148 -0.21284184 0.09284182 0.16640775 -0.02447455 0.24013804 0.40166742 0.43197423 -0.4783471 0.23532745 -0.32274696 -0.34688795 0.29753494 0.2914931 0.39421317 -0.08052553 0.09917634 -0.009224782 -0.14819677 0.23142637 -0.0728717 0.115865104 -0.12297392 -0.14224583 -0.15315251 -0.15918739 0.08372847 0.14482228 0.21094055 -0.07594169 0.39239296 0.04359877 0.013596991 -0.089722164 0.17177843 0.28845993 0.29572564 0.026538506 -0.121230334 -0.06539441
in 0.25188786 -0.08884789 0.23183 0.04278846 0.36690938 -0.14240576 0.06983599 0.0056953914 -0.2690579 0.0157037 -0.28476945 -0.3695081 0.020610372 0.18033542 -0.08620295 -0.020638565 -0.36740267 0.48567155 0.33686233 -0.5586251 0.27112362 0.15370603 0.34224972 0.0093545215 0.39508247 0.10256198 0.25754508 -0.1432922 -0.15268685 0.33745226 0.15393019 0.021914484 0.5573904 -0.44382897 0.24407512 0.67001134 -0.17144485 -0.012191232 -0.02475362 -0.6391416 0.31233904 -0.7134614 0.07741375 0.5496472 0.4311444 0.0054334607 -0.023037074 -0.5289361 0.050986588 0.11846604 0.2444321 -0.48215392 -0.27436104 -0.21767442 -0.1845071 0.43446425 -0.185907 -0.055517033 -0.3956355 0.100187935 -0.3127708 0.15415677 -0.11994837 0.14557333 -0.24478441 0.46127397 0.59456366 0.7277745 -0.4006734 0.55165976 -0.18065244 -0.60290754 0.4446123 0.2992243 0.5227769 -0.23089246 0.16284238 -0.09572154 -0.04606583 0.3768475 0.025820581 -0.1595466 -0.3999289 -0.4025744 -0.044826113 -0.07176917 -0.21142872 0.1120553 0.35145977 -0.41716364 0.17374033 -0.15042184 -0.17851348 0.063047655 -0.09063587 0.55576 0.47690752 -0.33269343 -0.27169055 -0.238521
francisco 0.093598075 0.090361804 0.07740949 -0.0130347 0.46043044 -0.39663485 0.12983564 0.33928943 -0.0046439497 -0.07072883 -0.37823632 -0.40069175 0.1457122 -0.016552247 0.09681672 -0.20136292 0.12480744 -0.08798561 0.35282263 -0.5933971 0.28626135 0.27286246 0.4851171 -0.18052538 0.10233596 0.5526624 -0.15730761 -0.067159645 -0.12024125 0.4720657 0.4001102 0.083978996 0.23440368 -0.47116148 -0.009283042 0.55268645 -0.09283943 0.030623192 -0.11124121 -0.41702843 0.20696606 -0.2404042 0.1909644 0.29825324 0.3447095 0.060129557 -0.2255922 -0.60264915 0.087467596 -0.17802025 0.3651738 -0.11574345 -0.15375245 -0.14456843 0.113800004 0.017401012 0.22592205 -0.12870291 -0.084738955 -0.022406248 -0.4421859 -0.41919366 0.15059535 0.25265276 0.16665155 0.16921145 0.3831222 0.41004312 -0.453255 0.031096555 -0.39783365 -0.38399792 0.31639686 0.50661993 0.3984039 -0.11789074 0.16350183 0.088450514 -0.12365784 0.30165827 -0.15144368 0.2932747 0.121189475 -0.23366801 0.030578982 -0.21422204 0.29543945 0.20357955 0.29241908 -0.104478 0.5709613 0.14521651 0.20046528 -0.20548075 0.2850169 0.33731395 0.32313845 0.20002759 -0.1683676 -0.11889889
and 0.23762417 -0.23327713 0.11776778 0.101578735 0.22307827 -0.31217358 0.12207561 0.24749193 -0.31514892 0.03032433 -0.4475381 -0.33026913 0.06681686 0.09608306 -0.010468719 -0.13130726 -0.26137602 0.31902382 0.4027265 -0.6551081 0.35941038 0.08590008 0.3690309 0.011090932 0.36024174 0.23249948 0.10255272 0.06341042 -0.16809927 0.43933478 0.41526684 0.14798331 0.57831717 -0.47127414 0.13257194 0.58656335 -0.061895628 -0.017305573 -0.1056774 -0.62154406 0.24769813 -0.540997 0.15463656 0.41190523 0.46414962 -0.050651893 -0.07630648 -0.5432702 0.09996248 -0.013273438 0.25383335 -0.4130528 -0.21741162 -0.26600194 -0.082437925 0.26676953 -0.1569264 -0.09649686 -0.22442967 0.1636149 -0.25765884 0.000100086414 0.11248751 0.11750076 -0.20457545 0.4330673 0.74644274 0.69874555 -0.62444276 0.5340219 -0.33092853 -0.54641736 0.36697224 0.319253 0.6679414 -0.16323787 0.110643856 0.035534885 -0.16033188 0.36215618 0.04304346 -0.063434534 -0.36795667 -0.26215127 -0.18866876 -0.16339922 -0.08965621 0.21714674 0.3062553 -0.39698288 0.3254917 -0.092866726 -0.053299308 0.013805797 0.15964156 0.3698294 0.43285507 -0.29721224 -0.116730265 -0.17218633
atlanta 0.16148476 0.08401429 0.06065628 0.04579437 0.2209504 -0.29350507 0.10717405 0.25508496 -0.034575 -0.06866922 -0.15995951 -0.38046843 0.020795692 0.042730656 -0.013730871 -0.046764307 -0.0024150298 0.032330744 0.18682727 -0.5276259 0.15602733 0.26153708 0.37708366 -0.06329968 0.08012734 0.3517708 -0.088813685 -0.08678911 -0.13342717 0.3466779 0.27176476 -0.04595714 0.41934425 -0.42017746 -0.031308584 0.4909168 -0.038096774 -0.03131037 -0.12692939 -0.5270948 0.13297214 -0.21918698 -0.051057823 0.22081825 0.33815232 -0.02647146 -0.17823063 -0.45006028 0.12967066 -0.004771109 0.22364432 -0.31844148 -0.15399043 -0.12689029 0.005636652 0.13980503 0.13237877 -0.13885726 -0.21288405 0.07477837 -0.31226066 -0.24580413 0.0907357 0.13241766 -0.07223366 0.22130972 0.32188264 0.40969676 -0.46021953 0.16621177 -0.29283795 -0.3465759 0.30696636 0.2874494 0.33622155 -0.087841064 0.06705183 -0.04309553 -0.21234454 0.20647001 -0.06354238 0.093968034 -0.07301474 -0.114727974 -0.13305195 -0.15753804 0.058981907 0.1387652 0.1855531 -0.077946946 0.41314584 0.080838844 0.018681038 -0.05977376 0.20367692 0.2912144 0.2616309 0.051086 -0.16509028 -0.10099728
is 0.8132119 0.22999796 -0.16501485 0.35020703 -0.38301948 -0.27812424 0.05618484 0.45164162 -0.3289444 -0.4827971 0.48384568 -0.328153 -0.37085336 0.31608966 0.11387553 0.2978334 -0.28214306 0.16738383 -0.48292792 -1.0198463 -0.07778251 0.27511108 0.34611174 0.21350451 -0.25854924 -0.15888332 0.097100474 -0.30939204 -0.15615249 0.046608593 0.0029149414 -0.45600992 1.1403966 -0.2989777 -0.20239829 0.2886406 0.13128053 0.28305712 -0.25211087 -0.6615671 0.12644143 -0.041642316 -0.3563972 0.20919053 0.36695752 -0.6532756 -0.62580925 0.110650465 0.604575 0.6952169 -0.33797044 -0.61160755 0.3157125 -0.0015209463 -0.10903054 0.2384806 0.11085211 -0.44561404 -0.23224697 -0.028487056 0.21553417 0.3408302 -0.0933685 0.28747588 -0.48654372 0.43019584 -0.18589234 0.6577034 -0.26380754 -0.12871185 0.13247408 -0.009509772 0.41391665 0.053266402 0.5403523 0.16919002 0.41789708 -0.16364788 -0.25467494 0.0021540418 0.24697495 -0.39305404 -0.60104656 0.31421334 -0.5050478 -0.18115738 -0.109877266 -0.021207934 -0.08818529 0.83737385 0.21357778 0.15363988 -0.34574804 0.4761243 0.9725419 0.6378945 -0.26436254 -0.4914509 -0.06869764 -0.06532905
dallas 0.18776208 0.0352492 0.07765374 0.10759195 0.1864588 -0.26567167 0.008338295 0.33490473 -0.08492156 -0.0616862 -0.22944549 -0.2988175 -0.00026179643 0.10516698 0.037942946 0.01106248 -0.045338616 0.07104099 0.2131872 -0.59374684 0.19671349 0.23479973 0.33511662 -0.030303825 0.089458816 0.35216948 -0.027740158 -0.020526772 -0.11380195 0.4288635 0.37728336 -0.02027374 0.42209312 -0.46230844 0.03419742 0.47379974 -0.015919264 -0.043829095 -0.115773045 -0.5280828 0.20480882 -0.2255075 -0.024125319 0.2327799 0.35493395 -0.056594096 -0.16793528 -0.4280147 0.128686 -0.02862145 0.26207408 -0.30516267 -0.195069 -0.0812331 -0.029185364 0.116530016 0.1088217 -0.16771466 -0.13738497 -0.0063468274 -0.26011467 -0.08270464 0.042635478 0.15037614 -0.032944273 0.25765574 0.42662826 0.4472962 -0.4720437 0.17920414 -0.29893944 -0.34989187 0.27500892 0.29657373 0.39225245 -0.10671867 0.1338164 0.019825337 -0.13741852 0.26574057 -0.037592545 0.080423035 -0.11400872 -0.12581338 -0.19426084 -0.20042542 0.0320123 0.090645075 0.17557941 -0.054476887 0.41057652 0.04148042 0.008902656 -0.041993715 0.21453694 0.29232693 0.2577509 0.053473927 -0.16577245 -0.024497429
pittsburgh 0.14095521 -0.025359167 0.059079062 0.07380237 0.08848747 -0.33893892 0.06775241 0.39961445 -0.1328364 -0.09036409 -0.26014456 -0.30365804 0.041240647 0.061960902 0.023270605 0.004095067 -0.072321646 0.031344958 0.23956059 -0.6331775 0.21703403 0.19531336 0.32784364 0.0039523556 0.115840785 0.3472798 -0.057175387 0.036290254 -0.15221126 0.36389452 0.35575095 0.024919137 0.4185278 -0.42219982 -0.028733453 0.49068648 0.024682328 -0.083648376 -0.19267938 -0.4865671 0.18138291 -0.17355935 -0.054627992 0.13493596 0.40705732 -0.0805678 -0.12902407 -0.4184627 0.12682119 -0.027774004 0.22861233 -0.24859692 -0.15920882 -0.10587622 -0.0044190516 0.10751813 0.0468381 -0.1567301 -0.1531986 0.06371641 -0.21236473 -0.18621452 0.15281902 0.13734333 -0.049855098 0.24124162 0.42749086 0.37845084 -0.5032015 0.23647857 -0.32273024 -0.29061538 0.21281838 0.26473123 0.40712348 -0.03834923 0.076713204 -0.0048922994 -0.16030493 0.2733873 0.013066339 0.06434353 -0.14465877 -0.098068014 -0.27423525 -0.15226597 0.070595264 0.16365682 0.18773523 -0.054455698 0.35860065 0.035309616 0.017383063 -0.049161386 0.27973184 0.17700815 0.2104055 -0.06540759 -0.071026325 -0.020906389
all 0.10920512 -0.31133327 -0.019105125 0.0711344 -0.43172213 -0.59464335 -0.115164116 1.0449187 -0.4106516 -0.26536837 -0.39035842 -0.15981482 -0.13883479 0.09639606 0.13127585 0.02314939 -0.11837921 -0.21183504 0.09190552 -0.9829272 0.22560076 -0.068001024 0.28821495 0.13017952 -0.1340158 0.27852288 -0.09086335 0.23827383 -0.1202396 0.2835392 0.5496505 0.052755296 0.45796108 -0.44613165 -0.18218629 0.16736698 0.3380459 -0.14295763 -0.35598975 -0.3028494 0.2097743 0.19372639 -0.077011935 -0.18381043 0.55444974 -0.29332754 -0.20311217 -0.018441515 0.3192644 0.112183705 0.09918273 -0.0023337533 0.14233132 0.18362945 0.027977733 -0.12450638 -0.010971321 -0.21499054 0.13964687 -0.060743954 0.18112783 -0.11617692 0.33292875 0.112217106 -0.12695941 0.30859843 0.47256017 0.25741473 -0.6892756 0.3145492 -0.33711305 0.18868226 -0.029495073 -0.029935926 0.61114186 0.170638 0.27810317 0.25399786 -0.102768764 0.15148681 0.25966072 0.014155942 -0.40727603 0.23886786 -0.6126981 -0.18250343 -0.08326667 0.32966715 0.121775486 0.33644718 0.20295538 0.009673706 0.08292186 0.0017457817 0.8248558 -0.08171113 -0.066754475 -0.40713948 0.32669112 0.17269772
list 0.24080828 -0.13383827 -0.016080812 0.051008012 -0.40302858 -0.5353763 -0.021934176 0.8434245 -0.42157727 -0.30638248 -0.14263462 -0.20185177 -0.14830862 0.123661496 0.07786176 0.005424189 -0.10379637 -0.09372111 -0.14855699 -0.9047244 0.0862211 -0.09311095 0.24059702 0.10616356 -0.20378001 0.119648516 -0.052517444 0.07323376 -0.07699969 0.07584183 0.30903482 0.028285984 0.5069872 -0.27503935 -0.19655596 0.012029417 0.3024249 -0.10678023 -0.32221836 -0.28197035 0.08092942 0.19226837 -0.06699661 -0.113164745 0.4159053 -0.35703722 -0.19914286 0.06426181 0.31770486 0.24465595 -0.020138092 -0.016715392 0.235409 0.12727614 0.06584128 -0.06657985 -0.009702559 -0.14283746 0.088264294 0.034032825 0.24034189 -0.09286794 0.23795548 0.15306754 -0.20194857 0.26535332 0.1837117 0.26775965 -0.55092925 0.23782893 -0.19206117 0.17138429 0.06571471 -0.054356165 0.44097573 0.19884261 0.2995209 0.18542655 -0.12095161 0.020368569 0.24389158 -0.013920753 -0.4590897 0.30251062 -0.4766163 -0.071597084 -0.042936187 0.26523894 0.16869573 0.43322745 0.12915528 0.02008059 -0.0077830474 0.114452936 0.7946332 -0.060560785 -0.10514806 -0.46861255 0.3120206 0.027583051
baltimore 0.170123 -0.07501898 0.06622303 0.114664465 0.06287186 -0.2611295 -0.0066555752 0.3574637 -0.1096634 -0.014527565 -0.2845558 -0.18808296 0.012659149 0.07586745 0.030688627 0.044447284 -0.0956484 0.09766112 0.23988059 -0.5682333 0.2006089 0.18657963 0.2738369 0.01250227 0.08613958 0.3031047 -0.03162086 0.031905137 -0.12762174 0.42698425 0.4009114 0.011151263 0.4015779 -0.43245667 0.06314716 0.47817022 4.9053404e-05 -0.05019577 -0.13159859 -0.47523907 0.21762256 -0.22915424 -0.028032785 0.19182682 0.36703783 -0.046211876 -0.1312527 -0.3888831 0.14680637 -0.060399607 0.20682977 -0.2638246 -0.17129974 -0.092821375 -0.026979117 0.11957865 0.02676135 -0.14297204 -0.10839044 0.008315572 -0.1802308 -0.078113765 0.08394321 0.115985595 -0.018493507 0.26106504 0.44995672 0.36476737 -0.45873728 0.22142549 -0.33745092 -0.30837318 0.16862711 0.24484867 0.4219017 -0.06954016 0.105746664 0.05315333 -0.11608284 0.2789365 0.020130754 0.061241943 -0.15778783 -0.11182548 -0.2526336 -0.19898477 0.0052847886 0.12722248 0.12917998 -0.07587794 0.3078472 -0.02814583 -0.011780909 -0.010111238 0.18105027 0.17550145 0.18873443 0.017878616 -0.13779193 0.012455956
philadelphia 0.12204732 0.02009479 0.037134312 0.061404694 0.15292217 -0.30482757 0.05838279 0.3656392 -0.103854746 -0.07143419 -0.25245452 -0.29938704 0.027050417 0.06612393 0.017761908 -0.026441786 -0.01917892 0.0188248 0.21447262 -0.56980443 0.22401732 0.19441484 0.3392842 -0.033441402 0.065733016 0.33725762 -0.071198076 0.00927759 -0.10999488 0.3923428 0.36204982 0.0024621603 0.37509623 -0.41134074 -0.0051395665 0.46390027 -0.0009933175 -0.05691376 -0.12743445 -0.472163 0.18742757 -0.18945754 -0.02826392 0.17115714 0.3573236 -0.0627215 -0.15118635 -0.41522914 0.152122 -0.048659645 0.25474223 -0.24843618 -0.14365144 -0.09207144 0.010168552 0.106200546 0.08863749 -0.14789088 -0.13796301 0.013705735 -0.23062526 -0.17936793 0.11177529 0.10346738 -0.029601833 0.22322682 0.39260024 0.37041888 -0.48534507 0.17835616 -0.3136158 -0.29885352 0.22217625 0.27020714 0.36989477 -0.07425619 0.100008056 0.030207071 -0.13964806 0.24148825 -0.027003197 0.11025291 -0.115986675 -0.07470385 -0.19968829 -0.18163384 0.0393844 0.14549686 0.17354229 -0.06339668 0.3875729 0.04890354 0.045703363 -0.08899569 0.22497582 0.17771949 0.23587257 0.012171824 -0.095209725 -0.02360569
like 0.45808256 0.9171479 -0.19206621 -0.37439466 1.004857 -0.8395242 0.68505406 0.37389547 0.26858857 -0.33653808 0.6110358 -1.6589072 -0.10603302 0.071283564 -0.21979238 -0.5935504 0.6359355 -0.44613433 -0.38426632 -0.9155724 -0.076960295 0.6132868 0.9467085 -0.5327084 -0.23074867 0.46120727 -0.48994055 -0.6851368 -0.30525458 -0.16254796 0.022210117 -0.38624394 0.6432803 -0.5010821 -0.6698445 0.14617448 0.17554325 0.16659342 -0.16943309 -1.0456702 -0.45226574 0.008103012 -0.42961374 0.026087062 0.15342963 -0.20069455 -0.67314374 -0.34936702 0.19878675 0.6095146 0.2451472 -0.74538535 0.4151534 -0.38587776 0.35073587 0.0018872756 0.7230503 -0.17783399 -0.74020094 0.53821075 -0.8182357 -1.2080926 0.52050877 0.18689275 -0.5494237 0.077120155 -0.50031465 0.67143285 -0.84687436 -0.3020032 0.1634394 -0.24763604 1.1225704 0.34585327 -0.0105978325 -0.26371908 0.010795826 -0.5204258 -0.8859968 -0.34864387 -0.35465893 0.34377086 0.089049354 0.18813819 0.24727526 -0.12045972 0.37336016 0.25951982 0.6301275 0.48833135 1.0589856 0.83667356 0.5521269 -0.2701179 0.9194161 0.8454439 0.63273287 0.114166975 -0.1914671 -0.86488354
are 0.6410657 -0.019051468 -0.099420205 0.35749826 -0.523906 -0.21662745 -0.0270056 0.49141833 -0.4391173 -0.35182124 0.118103266 -0.063633054 -0.20983511 0.32684746 0.07278183 0.2887783 -0.27618515 0.18820088 -0.2509963 -0.967092 0.029485216 0.1194411 0.2814668 0.3074554 -0.10629583 -0.14597422 0.12024755 -0.04212546 -0.1382502 0.16339959 0.16237462 -0.22479919 0.92858166 -0.33358273 -0.12556638 0.266307 0.14755873 0.13802095 -0.3473563 -0.44525287 0.1572385 0.015536636 -0.17115554 0.14278653 0.42833784 -0.5450243 -0.46719995 0.026353853 0.4650637 0.5224176 -0.32420206 -0.3870573 0.13472551 0.0774289 -0.09405969 0.16937777 -0.11849761 -0.37943253 -0.11535542 -0.043292973 0.31250316 0.3018466 -0.027243923 0.28783983 -0.33485764 0.43657085 0.043640442 0.47387514 -0.22710904 0.12538224 -0.033122014 0.07039262 0.18374126 0.003697869 0.5933073 0.16901465 0.38983247 -0.007024411 -0.11109342 0.12302856 0.30485278 -0.3724709 -0.6083144 0.24968317 -0.6101833 -0.20259146 -0.098856814 0.06101607 -0.06316241 0.6155731 0.03295643 0.00569388 -0.36206657 0.3230902 0.79522187 0.31875446 -0.2764915 -0.63178504 0.08943608 0.12429712
airlines 0.18788618 -0.013208467 0.0004648327 0.012441167 0.2318656 -0.36813003 0.02936981 0.40395418 -0.18658397 -0.11243121 -0.19519134 -0.41990176 -0.008164123 0.14906596 0.05999457 -0.17363979 0.04213968 -0.11096727 0.024991076 -0.7994592 0.15719748 0.25238195 0.43059322 -0.09970351 0.11982315 0.40066576 -0.092270605 -0.03657326 -0.20520565 0.35704848 0.26315415 0.038933456 0.43540823 -0.35216984 -0.09444615 0.33602422 0.07935514 -0.010578295 -0.22175416 -0.39484754 -0.03496969 -0.14086142 0.034799624 0.11221899 0.3421284 -0.11961309 -0.27412206 -0.19355975 0.11192568 0.11988046 0.20239162 -0.30731845 -0.01991035 -0.06629601 -0.047351606 0.008559564 0.1462882 -0.14349742 -0.14018016 0.09962709 -0.21243878 -0.26706955 0.17469735 0.25308406 -0.11135524 0.24263495 0.2493758 0.43613666 -0.5325676 0.24205486 -0.16973482 -0.13828978 0.28531992 0.21220846 0.2994643 -0.07842172 0.16511011 0.07156217 -0.16335534 0.10709144 -0.011989638 0.02271077 -0.29528165 -0.03270265 -0.1361099 -0.094084576 0.10915889 0.24491438 0.24015254 0.15824555 0.42287713 0.20686354 0.058248136 0.058743488 0.3749025 0.37082642 0.2659414 -0.15599295 -0.036503665 -0.17039755
that 0.13314514 0.029266786 0.07253003 -0.03883823 0.30641747 -0.35931718 0.2327565 0.28065014 -0.17508428 -0.021150894 -0.16262576 -0.5548424 0.053112827 0.01447948 -0.07943096 -0.24750265 -0.08997043 0.065201975 0.16112885 -0.6508507 0.24319491 0.09245118 0.33946627 -0.11994641 0.17492922 0.22691612 0.026158035 -0.13418666 -0.21277453 0.16495505 0.1884531 0.08511961 0.45157573 -0.33484817 -0.07613328 0.37098464 0.056845047 -0.039059736 -0.17443876 -0.53727424 0.06234202 -0.31394994 0.015121859 0.18558288 0.3509412 -0.06209055 -0.026650462 -0.3621831 0.03226917 0.13188827 0.25139257 -0.30663764 0.011033145 -0.17696036 -0.07046814 0.13163953 -0.00057669997 -0.056756295 -0.35565984 0.24430929 -0.24899241 -0.24125053 0.18712598 0.022556951 -0.28345412 0.2708394 0.39560196 0.5151807 -0.62354094 0.34340245 -0.15421452 -0.36973095 0.44751248 0.19344811 0.37178037 -0.076890595 0.05756183 -0.034193028 -0.23932001 0.13782653 0.0023170062 0.0006638633 -0.28695264 -0.12963587 -0.12037077 0.0024702458 0.026798252 0.24087739 0.3825445 -0.20288199 0.29710475 0.13647468 0.1145929 -0.022708546 0.22797807 0.30988872 0.3702438 -0.26483542 -0.010757842 -0.30463064
washington 0.15415815 -0.0074742394 0.11070846 0.026284581 0.25139388 -0.36259398 0.034959137 0.24826774 -0.033146147 -0.12673305 -0.22185665 -0.40248692 0.06890464 0.085119426 0.010784311 -0.113314986 -0.0003040827 0.079202205 0.24916469 -0.5420274 0.22455965 0.24036455 0.45233327 -0.1251806 0.185602 0.38320884 -0.12194332 0.013134385 -0.15110765 0.4344035 0.29555762 0.027200196 0.42201847 -0.44365087 -0.043081384 0.5102111 -0.030628497 -0.049056716 -0.14287673 -0.454371 0.15051898 -0.24741657 0.04029601 0.22633845 0.36258295 -0.034778703 -0.19276492 -0.4337438 0.10367273 -0.07203398 0.30934185 -0.2693978 -0.0845272 -0.17308447 -0.041066986 0.1698721 0.05320785 -0.08436543 -0.1473099 0.109633505 -0.2836947 -0.23904122 0.12216347 0.17307813 0.008653912 0.21650673 0.3543585 0.4104473 -0.4341217 0.23185886 -0.31332853 -0.32052767 0.27286682 0.33407226 0.41247863 -0.07812618 0.07033559 -0.029243002 -0.13819869 0.25509575 -0.058892258 0.086125225 -0.122503586 -0.14632179 -0.16063896 -0.13386217 0.07414179 0.10493666 0.22873591 -0.03763209 0.46000546 0.0676464 0.0022380808 -0.138328 0.23341826 0.2430169 0.25819847 7.648453e-05 -0.13350397 -0.14148082
of 0.39208046 -0.07835474 0.024436347 0.21294728 -0.2363243 -0.29528794 -0.026349667 0.4032425 -0.31010073 -0.28573796 0.111554 -0.18944636 -0.24786627 0.18026783 0.07651678 0.18717976 -0.3138267 0.093290925 -0.11100876 -0.82190776 0.039268866 0.15553391 0.27181473 0.094746195 0.000103651255 -0.021285493 0.11946001 -0.08785907 -0.18448266 0.19331585 0.15691143 -0.16804965 0.81627935 -0.3211787 -0.058399104 0.35219857 0.080336116 0.08798364 -0.18290137 -0.56700176 0.21621548 -0.2248661 -0.20985356 0.063187666 0.43202874 -0.32708657 -0.29541224 0.026120901 0.3581408 0.4381836 -0.12440045 -0.45273095 0.1186645 0.042380456 -0.14691085 0.21850054 -0.010910285 -0.24082889 -0.20344777 0.013472921 0.06326027 0.25986364 -0.06784279 0.16162495 -0.3240077 0.34105712 0.26584384 0.58279943 -0.4161758 0.20146333 -0.01930717 -0.12883276 0.32265165 0.04357421 0.5040524 0.06879713 0.24234402 -0.055379305 -0.12528902 0.109787025 0.28639522 -0.28704235 -0.5071053 0.12162492 -0.34624845 -0.13762969 -0.18429856 0.10879987 0.06588305 0.3283417 0.15714334 0.011420018 -0.26362744 0.30715322 0.5271218 0.52221006 -0.020228501 -0.42641208 0.018223077 -0.108922824
between 0.3074983 -0.20771708 0.077457316 0.18107276 -0.12310497 -0.2891207 -0.015809078 0.4073877 -0.37049043 -0.1779164 -0.32529986 -0.054943282 -0.124331765 0.17430617 0.048005406 0.06557972 -0.29971465 0.2087474 0.17486854 -0.6184715 0.15209135 0.08309798 0.33365718 0.16038989 0.16054656 0.13424598 0.1475327 0.052644894 -0.12303541 0.43520403 0.31387457 -0.045731105 0.6092965 -0.43632966 0.078189425 0.45692107 -0.030085247 0.039332084 -0.15442264 -0.4317069 0.19714564 -0.26479873 0.022241985 0.30728787 0.48074657 -0.18598095 -0.1717939 -0.28500685 0.1568669 0.06280941 0.025578814 -0.27493328 -0.15129417 -0.126466 -0.06404705 0.19992875 -0.17968655 -0.24829112 -0.045701183 0.00861906 -0.08626327 0.10256114 0.00650926 0.24590994 -0.1072964 0.3977327 0.50124836 0.5086932 -0.41549402 0.33650294 -0.23481846 -0.2610109 0.1241574 0.21335341 0.61898935 -0.036350485 0.19185902 0.007193297 -0.015489374 0.27984485 0.21562819 -0.18373947 -0.31875408 -0.17504719 -0.32587975 -0.17582618 -0.09239981 0.09275277 0.16763158 0.019134978 0.15587051 -0.18183546 -0.15767798 0.06829672 0.32227862 0.31706342 0.10500617 -0.37670735 -0.010959129 -0.002863573
please 0.22839212 -0.11234237 -0.05728627 0.08978876 -0.38161945 -0.51851666 -0.077934064 0.8921623 -0.32772237 -0.34986493 -0.09392833 -0.2502562 -0.2513204 0.120244056 0.09471177 0.05224193 -0.11082424 -0.16493787 -0.105386816 -0.88556784 0.08828116 0.011485468 0.29400262 0.12690796 -0.23657879 0.15942395 -0.079722196 0.050783142 -0.09000881 0.14952908 0.3129338 -0.08879477 0.5807096 -0.36671844 -0.21931468 0.11113493 0.2905841 -0.058203142 -0.29426727 -0.3666422 0.1578257 0.18531337 -0.1495255 -0.1282779 0.44927773 -0.32899404 -0.3048674 0.08710798 0.38982996 0.26928002 -0.029998709 -0.13860133 0.25013843 0.17333695 0.018585179 -0.09205366 0.077395126 -0.26036295 0.061573423 -0.07717366 0.17230606 -0.048212852 0.21885052 0.13640092 -0.2106328 0.28403363 0.21819526 0.33986974 -0.58923334 0.11926378 -0.17027184 0.19758649 0.12933762 -0.042447858 0.50892717 0.18718961 0.30335733 0.14245816 -0.15846634 0.040717725 0.22342539 -0.014895396 -0.390738 0.30905998 -0.49680316 -0.17565992 -0.055926982 0.2425331 0.0639818 0.48315135 0.22519392 0.08630963 0.017161231 0.112630546 0.87700915 0.1387519 -0.1477417 -0.36908293 0.2405953 0.100185044
morning 0.13390963 -0.09743252 0.1601538 0.03652831 0.23699237 -0.19953586 0.06540602 0.07407356 -0.19472387 0.055217873 -0.22982883 -0.28879523 0.14958832 0.11383042 -0.044872835 -0.0538922 -0.20848471 0.27831653 0.30019605 -0.5227186 0.27745375 0.129399 0.26000792 -0.06255525 0.33614546 0.13426158 0.16300705 0.015083904 -0.20968816 0.32879713 0.28597817 0.097938076 0.37713966 -0.38991123 0.16278434 0.5647027 -0.08305298 -0.10254879 -0.08446071 -0.5089312 0.2366734 -0.51326114 0.0018070413 0.26243338 0.40640318 0.053130526 0.0414839 -0.4510192 0.035350073 0.018587483 0.3233684 -0.32716262 -0.27056053 -0.18983485 -0.13447969 0.30040252 -0.075241566 0.008271078 -0.30766967 0.10751092 -0.278629 0.0058267564 -0.0015943754 -0.006212567 -0.16719095 0.3511089 0.5349023 0.4397035 -0.41138348 0.47421676 -0.26290947 -0.49546438 0.28500554 0.2722958 0.3504308 -0.09535577 0.06574845 -0.023538569 -0.08205218 0.35007915 0.0036777395 -0.058407046 -0.2900671 -0.24550861 -0.118289776 -0.06177054 -0.12326934 0.129901 0.3218435 -0.31836227 0.15396038 -0.06772348 -0.07995518 -0.026787044 -0.12012227 0.23651308 0.42643425 -0.18114257 -0.16038983 -0.20694889
<UNK> 0.2398412 0.077914946 0.035043098 0.08684009 0.124671735 -0.1783477 0.1185983 0.09107011 -0.13643146 -0.086333744 0.04912304 -0.31688926 -0.043458875 0.096316576 -0.0075378483 -0.0017530682 -0.15510117 0.15587954 0.0114974845 -0.48204303 0.104358554 0.18275036 0.24262221 -0.041279867 0.12898648 0.07239071 0.08851391 -0.16053161 -0.15608943 0.19104575 0.08378561 -0.06210833 0.54667276 -0.26702097 -0.015902424 0.42820707 -5.1770985e-05 0.09691294 -0.092469394 -0.48229775 0.10013307 -0.3044927 -0.08357093 0.16913253 0.2759122 -0.13277452 -0.15005232 -0.17141789 0.14003232 0.22978407 0.0941407 -0.39788884 -0.008275537 -0.15491141 -0.10449118 0.20759209 0.04668563 -0.09821425 -0.27189314 0.10643634 -0.174649 0.028279774 -0.055620614 0.070550136 -0.22613597 0.22271027 0.22977689 0.4737106 -0.33455342 0.19477132 -0.023908969 -0.31868127 0.34473008 0.18780778 0.31293613 -0.057215266 0.09228471 -0.08936142 -0.12521783 0.14864387 0.057316527 -0.13498342 -0.2670043 -0.11489622 -0.07670889 -0.069996625 -0.06677829 0.08496674 0.17464437 0.0065799863 0.22309197 0.070265934 -0.119827285 0.14641945 0.1649187 0.4401998 0.19347067 -0.17449532 -0.1313041 -0.21877341
leaving 0.14191131 -0.09101899 0.10701551 -0.053833496 0.24461852 -0.3082125 0.15649784 0.28797138 -0.18247502 0.003928011 -0.2568186 -0.40307108 0.06783627 0.051292997 -0.07866032 -0.13486792 -0.11442495 0.1554868 0.26132843 -0.62117517 0.23497932 0.12212044 0.36904952 -0.08204246 0.26120543 0.25646156 0.086791135 -0.085804015 -0.22358847 0.2781046 0.2506171 0.089907885 0.4172643 -0.38961163 -0.0054843705 0.487664 -0.028112067 -0.09317319 -0.17796296 -0.52206284 0.14744282 -0.34433234 0.038379855 0.25541803 0.43543187 -0.0070498027 0.0037556519 -0.43330884 -0.0028319836 0.06684635 0.29306698 -0.30077657 -0.16224386 -0.18481894 -0.09396536 0.12606826 -0.04602843 -0.040981464 -0.2932474 0.120073274 -0.27359417 -0.18231119 0.13256264 0.08924995 -0.22010705 0.308563 0.4943024 0.4992206 -0.5662285 0.43289614 -0.24096294 -0.3975497 0.35305232 0.24675965 0.41754436 -0.09681644 0.0711175 -0.008303317 -0.21584807 0.30312967 0.028106306 -0.00015690448 -0.29475066 -0.21187048 -0.11952675 -0.049838252 0.000690603 0.20577645 0.28604528 -0.2477328 0.24307398 0.039201405 0.039186157 -0.03199424 0.17707343 0.2924533 0.41144237 -0.22484873 -0.07227306 -0.20731372
pm 0.066414684 -0.42368123 0.3196415 0.15896165 0.43255535 -0.20803872 0.18461478 -0.000327347 -0.38721126 0.3075209 -0.6818816 -0.37035784 0.36830398 0.13769625 -0.165924 -0.21644033 -0.52900153 0.6605751 0.74387693 -0.7165386 0.64176446 0.08934617 0.33651343 -0.023462761 0.9126128 0.16250734 0.4460578 0.056232683 -0.34432852 0.72356987 0.5120461 0.39502385 0.69103557 -0.6428068 0.40560967 1.2424476 -0.21083242 -0.116487324 -0.07019301 -0.87251467 0.44263783 -1.0796765 0.14558387 0.5283488 0.6728291 0.10605744 0.29096422 -0.9150477 -0.12451637 -0.07604846 0.6887898 -0.58083415 -0.55686617 -0.5306394 -0.29245418 0.5787984 -0.30556276 0.1758787 -0.56252986 0.38711172 -0.5249064 0.057288136 -0.025536949 -0.105289295 -0.3554699 0.5444908 1.2996892 0.8773337 -0.80927825 1.1853685 -0.41846028 -1.0691329 0.37149122 0.4714589 0.7547957 -0.3221008 -0.007021783 0.05453677 -0.026741464 0.81151026 0.0760249 -0.15875898 -0.49799004 -0.73432606 -0.11012713 -0.00012794466 -0.2420012 0.26707667 0.6408113 -0.9646801 0.20718925 -0.27113435 -0.22276585 -0.003047292 -0.4896927 0.424933 0.8660813 -0.5113448 -0.33173162 -0.37308466
would 0.33741143 0.89315796 -0.4105299 -0.48129818 0.8430449 -0.6087498 0.44115415 0.20522141 0.09369456 -0.42419767 0.6799436 -1.3802606 -0.2930959 -0.0044531757 -0.053641535 -0.63768256 0.60189193 -0.34960297 -0.42253032 -0.6100135 -0.084023826 0.4351398 0.9530461 -0.55032754 -0.34226418 0.44185457 -0.48786443 -0.77936244 -0.13189267 -0.34906015 -0.40260613 -0.39848775 0.53801036 -0.1852249 -0.5951776 0.085789114 0.1158475 0.18119876 -0.30125353 -0.65162575 -0.47108582 0.19018884 -0.0678861 0.14283386 0.07521861 -0.1554169 -0.50465506 -0.19881204 0.11726672 0.47402316 0.21271953 -0.39814386 0.5851705 -0.15995373 0.273262 -0.26988477 0.5649305 -0.20731892 -0.84203684 0.28305793 -0.4886242 -0.94754153 0.3368615 0.38977578 -0.33480883 -0.041245002 -0.6357778 0.49992016 -0.67745745 -0.34209135 0.18568224 -0.17930785 1.0657086 0.2874707 -0.17497866 -0.087703854 0.049649663 -0.20282254 -0.79203236 -0.53841203 -0.41709194 0.21031864 -0.034888294 0.1540628 0.22939354 0.17393562 0.5595332 0.29948604 0.35944575 0.60359335 0.88020426 0.8579894 0.48426065 -0.09558634 0.8580395 0.7089358 0.16679165 0.28957996 -0.023706278 -0.7334704
fly 0.1329056 0.44984242 -0.0854726 -0.22344525 0.6456801 -0.41768065 0.26003796 0.1593088 0.15966563 -0.17592444 0.0887753 -0.78276825 -0.046393786 -0.0020262625 -0.06544335 -0.38821614 0.33677435 -0.19592446 -0.019447584 -0.46313077 0.07925482 0.38043028 0.6477768 -0.36867216 0.029773448 0.50816256 -0.27550006 -0.2852343 -0.17785202 0.16925022 0.07115508 -0.113807596 0.32733884 -0.32022426 -0.3167251 0.2695234 -7.841016e-05 0.08738179 -0.16733283 -0.5085788 -0.20355475 -0.052778132 -0.020482283 0.13639054 0.13772628 -0.050158832 -0.31962028 -0.40175995 0.046109993 0.16000617 0.2738083 -0.38750705 0.10853438 -0.23190866 0.16375054 -0.03287422 0.31903797 -0.13987438 -0.42362964 0.18995562 -0.5361221 -0.6607559 0.24249464 0.19556664 -0.14213912 0.10075553 -0.08004128 0.4259339 -0.50736153 -0.033449095 -0.086823255 -0.22860274 0.6516203 0.38246462 0.07142397 -0.14925382 -0.0037409116 -0.17351887 -0.40585014 -0.12720862 -0.28532672 0.24693795 0.0112032425 -0.016832357 0.15940809 -0.10150821 0.35264826 0.18566327 0.28700823 0.11786196 0.716954 0.4447887 0.37233382 -0.21958448 0.37789497 0.48637363 0.38510916 0.17788883 -0.131921 -0.42756385
city -0.16209656 0.2825614 -0.10371799 -0.57740366 0.473221 -0.4700744 0.2923433 0.47550213 -0.4569498 -0.05105182 -0.14105393 -0.7647086 0.6070629 0.2546912 -0.016074073 -0.3018963 -0.16471928 0.09427045 -0.02905447 -0.8025771 0.56101894 -0.2761143 -0.26463076 -0.323207 0.6098752 -0.16945553 0.47018942 -0.116973594 -0.3818425 -0.13857016 0.28479552 0.15437056 -0.12631369 -0.34760103 -0.18688238 0.72359455 0.17758696 -0.4829954 0.075562365 -0.8003473 0.26079825 -0.6624797 -0.13012837 -0.13262185 0.6698683 -0.12500435 0.40510857 -0.37336034 -0.13765542 0.24984978 0.8776903 -0.32494143 -0.24303289 -0.40644628 -0.19876426 0.47542098 -3.4721103e-05 0.17371792 -0.6672883 0.2284859 0.047036413 -0.12170015 0.10149744 -0.5354169 -0.44637936 0.30792233 0.70164514 0.5611658 -0.6895822 0.8298095 -0.0069833794 -0.7170136 0.4115471 0.42543808 0.22256583 0.2929282 -0.27061144 -0.0028729977 -0.15110525 0.3102557 0.34204522 -0.26674294 -0.83059293 -0.010953981 -0.04953151 0.4948678 -0.43159267 0.22113527 0.6076974 -0.5470327 0.22697864 0.27562645 0.2378696 -0.26654387 -0.22422217 -0.26509506 0.75374055 -0.8743923 0.3766298 -0.5548018
for 0.32118675 0.03751052 -0.04818798 0.058872823 0.07214661 -0.37975833 0.13318083 0.4225805 -0.14777051 -0.1518547 0.034037456 -0.38254148 -0.10696071 0.09832803 0.027743133 0.018864287 -0.08746647 0.0033542605 -0.00869703 -0.7144061 0.14094551 0.19046417 0.3531323 -0.04955992 -1.1620898e-05 0.18677829 0.037610188 -0.13911438 -0.18508027 0.23166637 0.2782077 -0.115504876 0.60683626 -0.3557333 -0.095339425 0.3938689 0.07579257 0.02030358 -0.1659561 -0.61272043 0.13056356 -0.1553719 -0.12730943 0.09334815 0.42094803 -0.15852173 -0.25489947 -0.1987175 0.21933904 0.21470793 0.09036247 -0.36172983 0.022952737 -0.11619146 -0.049549203 0.124620266 0.14158444 -0.18498467 -0.21979591 0.087176606 -0.1335787 -0.099685065 0.096943244 0.10995487 -0.2301792 0.2652863 0.24993677 0.50656545 -0.5248828 0.12633283 -0.1587949 -0.25372446 0.3489677 0.22811839 0.4135206 -0.03783996 0.12372907 -0.074303664 -0.2810948 0.128447 0.0996893 -0.05144263 -0.31317028 0.015054552 -0.24027716 -0.13079137 -0.0055646864 0.10282464 0.14436097 0.12631458 0.34661132 0.12745441 -0.029974595 0.12599242 0.46568373 0.38713416 0.13022804 -0.17959535 -0.05973924 -0.18550561
need 0.27661848 0.65989363 -0.29051974 -0.38498592 0.6001119 -0.53622043 0.40458226 0.2992491 0.09805923 -0.30572623 0.5308231 -1.0603514 -0.15193819 0.05724114 -0.0824628 -0.3991783 0.39098334 -0.24491502 -0.39434862 -0.61802244 -0.060617525 0.23205458 0.54150826 -0.4057969 -0.26175377 0.20587993 -0.30577135 -0.5669997 -0.12102413 -0.3707185 -0.22912015 -0.24890672 0.38791966 -0.16658257 -0.5007554 -0.05812806 0.13643382 0.05297555 -0.18260573 -0.5543444 -0.3351924 0.19075285 -0.15970163 0.0025445784 0.09530516 -0.20433527 -0.3571963 -0.06083629 0.100034416 0.42124948 0.15049568 -0.3242983 0.4557619 -0.14018692 0.2570852 -0.10999975 0.45102638 -0.121724 -0.52731854 0.2481279 -0.32216382 -0.7239142 0.3453845 0.187573 -0.34704503 -0.01368807 -0.4615257 0.38907894 -0.52030754 -0.28119987 0.22097917 -0.13772453 0.7585642 0.19589455 -0.1153308 -0.06931242 0.05495071 -0.2337825 -0.62739795 -0.3752931 -0.2356264 0.1661818 -0.06637266 0.18704744 0.15623268 0.16790773 0.3849382 0.17360584 0.31556246 0.5019223 0.5923276 0.6340036 0.31523186 -0.043416638 0.72776073 0.47822577 0.13527407 0.080080435 0.03357106 -0.49013364
fare 0.41916567 0.018016841 -0.1475341 0.36241207 -0.2791444 -0.33680755 0.10111812 0.58745295 -0.13614622 -0.27817225 0.103882074 -0.20269778 -0.1672969 0.08020863 0.15110624 0.30570164 -0.18418142 -0.1390877 -0.089885965 -0.78236747 0.06612599 0.3298277 0.25057304 0.11277278 -0.13613477 0.25654885 0.00412236 -0.06574956 -0.27055743 0.35756132 0.41035825 -0.26778138 0.75284564 -0.36023718 -0.14699587 0.49002126 0.1460344 0.0903055 -0.18121698 -0.6998186 0.15386672 -0.007566613 -0.39922744 -0.044257857 0.54323816 -0.28021565 -0.35310104 -0.19930677 0.48711225 0.15706609 -0.11894954 -0.40827423 0.016242405 -0.1513406 -0.06660122 0.047160625 0.15948883 -0.42570105 -0.08727088 -0.018766625 0.084790595 0.12768498 0.064207874 0.10976801 -0.21588069 0.21501788 0.18720528 0.5021716 -0.39962906 -0.096981704 -0.13336864 -0.16577879 0.2225733 0.3058021 0.53103936 0.10413735 0.07277705 -0.14970325 -0.2959971 0.16047835 0.2558976 -0.23217432 -0.2666463 0.15758333 -0.50185746 -0.34429696 -0.017670669 -0.029697826 -0.1215766 0.3241058 0.489651 0.16413799 -0.026731536 0.3175648 0.7253772 0.40727934 -0.11868423 -0.02366101 -0.15227301 -0.03334866
wednesday 0.02090583 -0.16415738 0.14800517 -0.05837164 0.32611194 -0.29227114 0.09987317 0.2719018 -0.20124547 0.10414265 -0.42910588 -0.33672607 0.2796381 0.10983024 -0.05581175 -0.15011966 -0.19833252 0.22397177 0.43258414 -0.6036491 0.39042476 0.08904389 0.28791872 -0.060116168 0.46677566 0.22662857 0.16204613 0.05664057 -0.27613938 0.4442911 0.38522577 0.1581884 0.3316285 -0.4569301 0.124446385 0.7338162 -0.03631106 -0.1611022 -0.119715095 -0.50907594 0.21879381 -0.51015365 0.03727756 0.253774 0.5034867 0.090916276 0.11620474 -0.51438844 -0.039014433 -0.0612424 0.48191872 -0.33407307 -0.34165406 -0.25286615 -0.13117245 0.26959342 -0.09253151 0.05748326 -0.3450187 0.15779561 -0.30430174 -0.15873331 0.09789915 -0.00013512306 -0.1746712 0.34288114 0.76501626 0.4959613 -0.55413204 0.682416 -0.34466124 -0.53475773 0.24437514 0.30949172 0.4382478 -0.11813411 -0.0064699976 0.0209344 -0.086557604 0.44444346 0.02817555 -0.008445002 -0.32858488 -0.3259083 -0.10075387 -0.037121642 -0.089823075 0.24012715 0.39184514 -0.4614252 0.23666169 -0.02513111 0.0014779825 -0.09828209 -0.10961357 0.16655512 0.56420255 -0.26278022 -0.10197196 -0.25688323
first 0.22243068 0.027627978 -0.12923072 0.12932175 0.050747022 -0.2571762 0.051526558 0.42656696 -0.1052331 -0.029376036 -0.071161166 -0.21425378 -0.012389953 0.0496009 0.09393166 0.050530516 -0.029027686 -0.13647579 0.06413932 -0.62629753 0.11823129 0.20396581 0.21588762 -0.027144056 -0.015953958 0.22030114 -0.02888608 -0.12966873 -0.2508493 0.29192048 0.39094785 -0.10579318 0.3752885 -0.33388406 -0.043694478 0.35794434 0.08643228 -0.014595961 -0.14673267 -0.5501507 0.044600755 -0.0225874 -0.17179763 0.013505898 0.3812208 -0.015366692 -0.16007738 -0.19944313 0.21361478 0.08056462 0.06900874 -0.32062653 0.0044439817 -0.09729178 -0.0061879777 -0.010916287 0.11036695 -0.15138847 -0.19067855 0.010975729 -0.14550844 -0.03358003 0.028726688 0.07513496 -0.06497152 0.13191411 0.23390302 0.27924424 -0.4196893 0.041267924 -0.13631043 -0.19606347 0.2606903 0.22345597 0.27743617 -0.04855931 0.085776575 -0.04495789 -0.20378397 0.15533756 0.08642982 -0.06690818 -0.27331775 -0.058873877 -0.2970447 -0.17574069 0.037072193 0.057105415 0.072661 0.15961233 0.35361248 0.13919663 -0.023510342 0.20070341 0.3536294 0.28996354 0.06855313 -0.0027814037 -0.040020585 -0.1291754
after 0.06293162 -0.39487383 0.2595478 0.06759261 0.2946762 -0.28851867 0.22459605 0.19662443 -0.39752534 0.23862416 -0.6225274 -0.3977301 0.28699735 0.032709856 -0.12041315 -0.22575471 -0.34876493 0.37160608 0.6028304 -0.77318466 0.5161828 0.046221197 0.40178657 -0.04120356 0.6760518 0.19334422 0.28390104 0.039794736 -0.34070808 0.5104753 0.44648525 0.37693486 0.6072173 -0.5483802 0.17106822 0.95050675 -0.096210346 -0.13067566 -0.21799682 -0.7302419 0.30475706 -0.7426407 0.12181169 0.39912084 0.6103094 0.03560673 0.16521385 -0.734715 -0.12363779 -0.026935486 0.53446823 -0.41923478 -0.40535778 -0.38371876 -0.165719 0.2848809 -0.20590782 0.14077753 -0.47256622 0.36298952 -0.41061085 -0.09256663 0.13086021 -0.08771929 -0.31876865 0.45509687 1.0539291 0.70751387 -0.8036984 0.92784846 -0.39564478 -0.72164494 0.31113416 0.33563742 0.70790577 -0.29527742 0.030495388 0.064987935 -0.13654429 0.5940765 0.069890514 -0.05829522 -0.47080538 -0.49803138 -0.20464778 -0.009306471 -0.110942885 0.39033815 0.56166816 -0.72126025 0.19546595 -0.107998386 -0.10730886 0.006427562 -0.09912642 0.3319202 0.6679721 -0.47734472 -0.12493077 -0.32781526
there 0.46199524 0.16358164 0.072048865 0.08740648 -0.32142043 -0.28303808 -0.079365015 0.29120007 -0.430506 -0.41326568 0.17998482 -0.16766486 -0.1983668 0.23416518 0.11532428 0.16747308 -0.25311685 0.16589467 -0.2839032 -0.79132813 -0.0067917057 0.02983832 0.29438385 0.06496855 -0.23043372 -0.08788195 0.02839964 -0.030660745 -0.1325722 0.015470466 -0.013698641 -0.23574558 0.71258354 -0.21554327 -0.10027416 0.035122335 0.06664337 0.16417158 -0.19639081 -0.3799827 0.20957728 -0.034625217 -0.23777583 0.05126542 0.24931233 -0.44013363 -0.31070307 0.12489938 0.3534219 0.44720083 -0.34526446 -0.39778593 0.16902559 0.009234091 0.027835142 0.24810964 -0.12733111 -0.32233107 -0.10564965 -0.14042081 0.27806976 0.19667584 -0.097761415 0.35127124 -0.09900999 0.32929963 0.012165318 0.47517112 -0.20067276 -0.016259495 -0.06254856 0.05439919 0.27374306 0.06622831 0.30965862 0.2629831 0.26894364 -0.17520376 -0.10354492 -0.038389906 0.2915222 -0.30045813 -0.43804556 0.30029947 -0.36517182 -0.17900631 -0.06847657 -0.009472729 0.02401302 0.49647596 0.17617685 -0.071549006 -0.39603773 0.32857272 0.5688063 0.42332715 -0.2371359 -0.37723616 0.00985689 -0.055624165
oakland 0.08458853 -0.008568328 0.04108829 -0.04264952 0.13764217 -0.31599802 0.064517386 0.37837678 -0.1950142 -0.08897714 -0.2610312 -0.3570256 0.09154735 0.12641035 -0.0071626664 -0.06613174 -0.09920125 0.050573464 0.1614387 -0.57300293 0.25082317 0.086464204 0.240068 -0.10721543 0.22579098 0.22046866 0.046056796 -0.033113014 -0.16071685 0.27726427 0.29093552 0.07059171 0.29862627 -0.37412277 -0.028246446 0.47584742 0.0101883365 -0.13392541 -0.10595744 -0.48024267 0.18494147 -0.30136442 -0.01753329 0.14740334 0.4262571 -0.06545461 -0.047603503 -0.34275627 0.073543884 0.053266928 0.35925373 -0.27114198 -0.17289199 -0.14485481 -0.06526586 0.19108577 0.011795183 -0.08143292 -0.2113226 0.066439845 -0.14733921 -0.11729995 0.076783456 0.032627296 -0.11131237 0.2590086 0.46635714 0.46540812 -0.460498 0.38031864 -0.21851477 -0.3844574 0.24660683 0.26656973 0.35394675 0.030852597 0.032840576 0.0072458503 -0.07739819 0.23815614 0.069875866 -0.009278878 -0.29586238 -0.075114556 -0.12840135 -0.041258257 -0.036945198 0.17652622 0.23970732 -0.14687128 0.3175519 0.052199718 0.016001426 -0.082008444 0.13414246 0.15705095 0.32472253 -0.21830215 0.0073282355 -0.124935664
trip 0.36867478 -0.085348375 -0.48372838 0.10764246 -0.2869113 -0.62646484 0.35446626 0.88725793 -0.19808932 0.08197626 0.31412828 -0.2824389 -0.07032375 0.21901922 -0.059681177 -0.009749027 0.024341846 -0.4278466 -0.3039606 -0.7149995 0.32194135 0.056985117 0.06363235 0.12260866 -0.1377351 0.027793337 0.19759347 -0.15793435 -0.16901855 0.2562361 0.67518395 -0.0014795782 0.65131736 -0.47377652 -0.27037844 0.3494056 0.31871015 0.09861858 -0.027075795 -0.9434341 0.30931342 0.10026807 -0.3288231 -0.07895832 0.43627936 -0.21072342 -0.16846325 -0.033936825 0.41334733 0.014992056 -0.083206944 -0.38499612 0.21187966 -0.3824003 0.29435882 -0.02993275 0.23405114 -0.13073936 0.020944541 0.241088 0.18312436 -0.3961735 0.43461454 -0.28697208 -0.33670995 0.005489962 0.25805536 0.5188302 -0.79428697 -0.12792192 -0.20427719 -0.28501362 0.27055869 0.43896225 0.4855146 0.04047454 -0.11839846 -0.1742054 -0.46393093 0.13696422 0.43276924 0.0074242777 -0.41795057 0.024138378 -0.6201214 -0.26118025 0.15281361 -0.086560994 0.026161227 0.3651722 0.5448612 0.3283661 0.45529166 0.32347852 0.66946363 -0.06811031 0.013475257 0.2123667 0.19830175 -0.23267515
ground 0.8327385 0.20060043 0.043157797 0.21052529 -0.4320137 -0.23728256 -0.29771423 0.44407597 -0.6870326 -0.65944225 0.4016777 -0.12139017 -0.44465896 0.47424555 0.15322344 0.41506556 -0.5364801 0.4342175 -0.5249644 -1.0331751 0.007482205 0.03333761 0.3755428 0.16345935 -0.24264522 -0.4673566 0.101036176 -0.2210514 0.058392495 0.03527582 -0.17603606 -0.53789866 1.1320162 -0.44104043 -0.011420908 0.29042238 -0.05266771 0.29874772 -0.022644488 -0.5919028 0.41989344 -0.30470827 -0.24269086 0.3076856 0.401058 -0.7374078 -0.45683315 0.22159827 0.62001604 0.8183446 -0.28000143 -0.51996017 0.20852146 0.26436284 -0.22748312 0.42920452 0.027941912 -0.3901913 -0.08141802 -0.219951 0.45906284 0.73773384 -0.33135015 0.40097988 -0.5016708 0.62929136 0.022252973 0.75603706 -0.16407172 0.12610288 0.067995474 -0.09188334 0.3451128 -0.015823804 0.5301705 0.14921656 0.3862653 0.007468819 0.1245382 0.09001637 0.30298457 -0.44684806 -0.83394367 0.4190344 -0.5331961 -0.12860219 -0.4569767 -0.0689895 0.087798744 0.77274007 -0.05509519 -0.18576436 -0.5156235 0.33503142 0.86204696 0.6475885 -0.35560596 -0.8017098 -0.104380384 0.017566351
arriving 0.12512922 -0.22678645 0.16590656 0.04012506 0.16549028 -0.2163592 0.09600446 0.15751015 -0.2865476 0.10210628 -0.41612875 -0.25865597 0.13369273 0.056822337 -0.0907971 -0.11414553 -0.25114495 0.32022235 0.3818283 -0.51562923 0.31134325 0.0538213 0.2886799 0.00967862 0.4009568 0.139218 0.19496085 0.030010987 -0.17090774 0.36362088 0.2999762 0.15531519 0.41155604 -0.41357636 0.17105852 0.5667543 -0.08400462 -0.10198663 -0.080893785 -0.49649373 0.24866991 -0.51179093 0.10352031 0.34711334 0.4245085 0.034928758 0.06703354 -0.47817492 -0.05526063 -0.028701266 0.34480768 -0.32525077 -0.2868921 -0.22480762 -0.10830257 0.22675261 -0.14593476 -0.012126894 -0.24252638 0.13968915 -0.27209297 -0.026277836 0.03116109 0.0274724 -0.22139302 0.35915217 0.6986202 0.53768665 -0.5362191 0.607951 -0.31310642 -0.53517926 0.25627628 0.22075927 0.4831339 -0.14954855 0.088769704 0.028168574 -0.09838436 0.42988592 0.050611798 -0.023019573 -0.31147972 -0.3282446 -0.1389801 -0.06859923 -0.1615749 0.1842738 0.3173731 -0.41099885 0.124237925 -0.13006532 -0.09252439 -0.027391845 -0.016871218 0.25526297 0.45440215 -0.2723732 -0.106784195 -0.16487566
you 0.40519437 -0.051732376 -0.031891406 0.2584252 -0.3094684 -0.78214914 0.084911145 1.0328 -0.31924728 -0.5739762 0.17390493 -0.5667942 -0.61465716 0.14515929 0.17212193 0.14843047 -0.25703743 -0.2444894 -0.38870287 -1.0703628 -0.11401629 0.27163243 0.37038714 0.004363745 -0.31342968 0.15865801 -0.1925533 -0.20836276 -0.11257254 0.038701035 0.26089206 -0.14914629 1.1406238 -0.30626813 -0.42735443 0.21064453 0.47438267 0.17226042 -0.33271047 -0.7597538 0.11872784 0.15159357 -0.29905427 -0.21153687 0.53787535 -0.4238698 -0.60438365 0.35439876 0.6037107 0.64587384 -0.18578163 -0.38624597 0.56900495 0.25609496 -0.1641541 0.039080314 0.18331124 -0.4411542 -0.060447607 0.16786593 0.16337161 0.06498077 0.08003787 0.092103995 -0.55110776 0.26627055 0.12839116 0.6341744 -0.9023579 0.15136574 0.055724114 0.15930073 0.5162607 -0.06330521 0.6839096 0.14906377 0.4444877 0.04703552 -0.2575112 -0.12662083 0.44656545 -0.08338075 -0.5827878 0.5245332 -0.6588299 -0.021228727 -0.11619343 0.30176088 0.0563304 0.63131815 0.36126077 0.290132 0.0054495223 0.41465324 1.0775844 0.60900664 -0.29796356 -0.5329476 0.34991437 -0.13940273
cheapest 0.46712628 0.051616516 -0.24377187 0.28298128 -0.4293726 -0.4885139 0.09320598 0.8320957 -0.12218141 -0.35199085 0.2386799 -0.3088635 -0.3133431 0.074542716 0.1472422 0.26333618 -0.054268733 -0.31784853 -0.28065372 -0.89022994 -0.0092273215 0.2523072 0.3412598 0.13757133 -0.41064137 0.21789485 -0.04586534 -0.0957368 -0.2219606 0.18209726 0.37190747 -0.3380106 0.83722293 -0.34815454 -0.2732195 0.22354269 0.29510933 0.08563062 -0.2587858 -0.64319533 0.06880754 0.2639727 -0.45974073 -0.14255166 0.50087196 -0.33786336 -0.4422051 -0.016918266 0.6089788 0.2462427 -0.20617661 -0.30209282 0.23596622 -0.012753441 -0.006844327 -0.087815374 0.22894566 -0.4475735 -0.041775025 0.0006483273 0.18685701 0.0059940265 0.15205298 0.16048531 -0.22940731 0.18195881 -0.037803877 0.4346701 -0.49252608 -0.24973522 -0.093241304 0.055431973 0.2204905 0.15514722 0.49018404 0.15621953 0.1631342 -0.14569727 -0.3924912 -0.004189315 0.23442966 -0.13771224 -0.24333145 0.31717575 -0.59772724 -0.3173557 0.02342298 0.058091853 -0.1224993 0.595311 0.5347013 0.20774034 0.10314584 0.32524732 1.0428423 0.3145119 -0.24910344 -0.05871294 -0.01457836 0.001815577
which 0.21002625 -0.07160264 0.052197695 0.04172353 -0.049665265 -0.3839691 0.08613341 0.43399635 -0.30162755 -0.16169527 -0.17649925 -0.3293412 -0.048984054 0.085431695 -0.0075232796 -0.12596676 -0.10593408 0.03732117 0.051430263 -0.68566096 0.1734418 0.010879887 0.34774154 -0.03785311 0.028539376 0.17033488 -0.0033115505 -0.03679754 -0.17057616 0.17917775 0.19894497 0.057072785 0.47944975 -0.29339004 -0.096856244 0.20465706 0.11157824 0.0074258507 -0.2699591 -0.36687607 0.068864554 -0.053987246 0.011353432 0.069520585 0.31640708 -0.19696498 -0.12499321 -0.15760669 0.1626786 0.17169818 0.050621044 -0.21624832 0.08671539 -0.08118788 -0.0029740022 0.019457486 -0.04408536 -0.10020103 -0.15009484 0.14744984 -0.021652257 -0.13329117 0.17792377 0.14864479 -0.19697091 0.26479578 0.28313974 0.39384604 -0.5077316 0.28193188 -0.16833399 -0.10034787 0.23471111 0.066595174 0.39655736 0.027175605 0.15864396 0.065142065 -0.14467694 0.080323584 0.09910466 0.0047668316 -0.3564311 -0.001790186 -0.26498067 -0.07580417 0.027730865 0.24556865 0.24973187 0.09585428 0.21121863 0.058549717 -0.06310245 0.06495125 0.4361175 0.19649507 0.0977969 -0.3520971 0.10568124 -0.14135772
round 0.53708124 0.17288731 -0.36293453 0.12233402 -0.23025286 -0.65351695 0.3984655 1.0703772 -0.12897494 -0.42433053 0.045913175 -0.4110085 -0.07120407 -0.16150363 0.41150114 0.29155296 -0.13405386 -0.23460595 -0.07807857 -0.911002 0.31409568 0.14107871 0.13854577 0.08478668 -0.5049855 0.4547945 -0.21445358 -0.1514702 -0.32391438 0.20198587 0.5607098 -0.46257278 0.5084995 -0.29549938 -0.2611503 0.47816345 0.35150215 -0.073704906 -0.4553387 -0.6508792 -0.044757623 0.33999282 -0.53732586 -0.45528466 0.81024027 -0.36687666 -0.5385971 -0.2869098 0.43856442 -0.038438022 0.085270725 -0.18073182 0.21378186 -0.25815248 0.1833336 -0.29871553 0.3691685 -0.4489457 -0.1752199 0.07496757 0.07107895 -0.2100703 0.2650486 -0.1907335 -0.2372088 0.0950996 0.2379994 0.19596937 -0.7785449 -0.3270905 -0.33756024 -0.02164402 0.058821086 0.12436241 0.5113531 0.19292688 0.14496066 0.15427785 -0.6761106 0.15738167 0.10255651 -0.09552018 -0.16368046 0.48769188 -0.79277897 -0.08044879 -0.1565477 0.020853512 -0.11961399 0.19654122 0.5786707 0.4248387 0.028477151 0.098229334 1.124282 0.006585197 -0.31151167 -0.23182218 0.0154610565 0.0595782
transportation 0.42845482 0.25362182 0.1654062 0.16025881 -0.36562514 -0.20095451 -0.1655859 0.2300176 -0.6077248 -0.6371559 0.2335503 -0.334238 -0.4100926 0.40990117 0.1575606 0.32227865 -0.5068439 0.56848454 -0.17363313 -0.65922934 -0.040731896 -0.050385844 0.040151868 0.3443254 0.0124507565 -0.4443374 0.35849136 0.07665867 0.06684415 0.00026237988 -0.058958713 -0.36122027 0.7820696 -0.26567703 0.14163184 0.26893994 0.08364295 -0.05681964 0.12703563 -0.6572523 0.54266965 -0.5103477 -0.22000493 0.38884994 0.3356654 -0.57691336 -0.5080982 0.14080817 0.60536826 0.6811928 -0.22896978 -0.82879937 0.1743053 -0.0043262327 -0.11253171 0.72417665 -0.1842348 -0.34715188 -0.25959232 -0.2867578 0.17077994 0.6996648 -0.49124813 0.17764582 -0.27733862 0.6753322 0.28369355 0.797549 -0.10671466 0.14015134 -0.058804322 -0.0456798 0.4583292 -0.05458459 0.6761501 0.3783001 0.5884611 -0.2815812 0.055930607 0.13107038 0.39184016 -0.4900787 -0.72049457 0.26230922 -0.28051576 -0.24506421 -0.53916496 -0.18611051 0.008680915 0.45127556 0.051415447 -0.23854326 -0.7499526 0.29900813 0.5749527 0.66313183 -0.021273607 -0.7381002 0.11128429 0.048704542
'd 0.31298912 0.80469674 -0.38570166 -0.39842835 0.7380507 -0.5975683 0.4343121 0.2660138 0.07759798 -0.40528336 0.6117293 -1.2688391 -0.2685909 -0.006946404 -0.045413826 -0.56962174 0.526152 -0.33556548 -0.4102571 -0.6237803 -0.07249811 0.3847557 0.8563775 -0.4919725 -0.31218845 0.40120935 -0.44815603 -0.705042 -0.15124659 -0.29812604 -0.32947707 -0.36148053 0.52858335 -0.19570106 -0.584886 0.094989315 0.13727547 0.14706054 -0.28081504 -0.6449761 -0.41852835 0.1903007 -0.09284299 0.08854134 0.11851272 -0.1782662 -0.49113756 -0.17956749 0.14345086 0.4351857 0.20907775 -0.3888324 0.54597396 -0.17699468 0.24209931 -0.23796353 0.53156483 -0.19126917 -0.77030313 0.30246958 -0.4224848 -0.8689278 0.3400417 0.3166546 -0.32827556 -0.044103187 -0.5571027 0.49238816 -0.6719204 -0.32015914 0.14784974 -0.16771574 0.9673942 0.26240978 -0.11594726 -0.07355422 0.022864403 -0.19637434 -0.7449785 -0.48472542 -0.34095252 0.17482287 -0.05780488 0.17741093 0.14761005 0.16726269 0.51063544 0.28181776 0.33737215 0.5606837 0.8485088 0.8090418 0.45228195 -0.058601033 0.8454935 0.63732374 0.14351062 0.23051333 -0.000768643 -0.6639993
before 0.10521122 -0.3292004 0.28509408 0.07054437 0.381138 -0.28140798 0.2156577 0.13448526 -0.41669354 0.19439228 -0.57040536 -0.46501923 0.2546869 0.08362958 -0.08161351 -0.21068132 -0.39125597 0.41932607 0.55227196 -0.8149005 0.49822852 0.0929901 0.3597876 -0.041312065 0.6759229 0.1534833 0.30291557 -0.013648867 -0.3544199 0.48663798 0.41037714 0.30000284 0.6216844 -0.59834075 0.19688633 0.9667649 -0.11057384 -0.12125159 -0.14690958 -0.776626 0.35036787 -0.87094223 0.12358865 0.46500176 0.61501634 0.07809225 0.15341854 -0.7441975 -0.11006782 0.046124823 0.5142911 -0.5017902 -0.41183072 -0.40478995 -0.18325159 0.3744948 -0.23434742 0.1316176 -0.5352338 0.3636407 -0.4465329 -0.0045066993 0.05511552 -0.07830212 -0.36241373 0.47955793 1.0622709 0.81779486 -0.7746999 0.9725482 -0.33986947 -0.8084818 0.40405774 0.33772153 0.7272193 -0.29080522 0.006947563 0.03116491 -0.10771916 0.5516037 0.06758065 -0.08710938 -0.52621955 -0.48192546 -0.15595934 0.032056995 -0.21600614 0.34852248 0.6129511 -0.74898547 0.23120736 -0.14318898 -0.08954391 0.026447369 -0.19463353 0.39878893 0.71966565 -0.508024 -0.17797877 -0.39913154
class 0.32791406 -0.0931338 -0.0048997467 0.19042508 -0.029944776 -0.40653068 0.070872664 0.5214081 -0.075080834 -0.063832834 0.0024201702 -0.30502433 -0.028575394 0.12144044 0.14714144 0.13564691 -0.17826997 -0.15049316 0.05293046 -0.77827823 0.21008302 0.30236542 0.19847381 0.034177538 -0.08905106 0.3284127 0.07475192 -0.07331568 -0.29285055 0.40705174 0.4558876 -0.11648548 0.57025886 -0.29139718 -0.12814614 0.5104038 0.12004394 0.0034050017 -0.19738749 -0.6341066 0.14175652 -0.16793947 -0.1514256 0.049967032 0.5125679 -0.0898225 -0.26405177 -0.18781938 0.17654811 0.061811946 0.14038005 -0.26245335 -0.054295618 -0.1758958 -0.03455471 0.033056255 0.2219797 -0.25040847 -0.15223892 0.04542794 -0.0816806 -0.019549187 0.07411142 0.02962702 -0.20142685 0.23837754 0.3011251 0.49040276 -0.5097411 0.12138051 -0.25988156 -0.31186855 0.23373017 0.21727462 0.4630713 0.03670202 0.052745324 0.011894014 -0.2940838 0.123161435 0.1972277 -0.08658795 -0.34787887 0.09492354 -0.24065928 -0.10773269 -0.022279546 0.12915938 0.0693132 0.084365584 0.4340884 0.18144247 -0.049985085 0.23501891 0.37457088 0.32717717 0.024824845 -0.040184192 -0.107491255 -0.09318496
does 0.53349257 0.15606122 -0.10527572 0.18465638 -0.14263786 -0.4255081 0.13148534 0.4751527 -0.2643574 -0.366853 0.22849977 -0.476276 -0.27244312 0.20190935 0.08161782 -0.01801459 -0.10074906 -0.066351496 -0.35236984 -0.97018385 0.03874504 0.29109925 0.43721426 -0.054201867 -0.1218716 0.1293888 -0.05851003 -0.2755067 -0.21818037 0.17979196 0.11836929 -0.17974888 0.90621334 -0.26941413 -0.2593882 0.28568298 0.19654483 0.23678118 -0.3379987 -0.5742678 -0.056375697 -0.0057108384 -0.24678221 0.032619555 0.33449048 -0.45729017 -0.4563569 0.09534457 0.40800253 0.5538485 -0.13487567 -0.53234446 0.33674133 -0.08252211 -0.07945741 0.0928907 0.13353254 -0.30736756 -0.24547613 0.14902487 0.026133442 -0.00268013 0.086757764 0.23644134 -0.3781268 0.29110336 -0.048318535 0.6013555 -0.49655133 0.06418885 0.09848195 -0.017302169 0.4625576 0.08537773 0.4020918 0.08006175 0.27172986 -0.099050984 -0.26670682 -0.06849658 0.19045058 -0.23382625 -0.54292476 0.20312226 -0.31167603 -0.13125911 0.03940883 0.14144087 0.10029046 0.62029904 0.40961266 0.27012843 -0.115698405 0.33197197 0.7465545 0.5770833 -0.049395937 -0.3837877 0.04498804 -0.25548336
with 0.15931849 0.08570522 -0.0017968423 -0.01744744 0.29713774 -0.3576285 0.15105663 0.3970549 -0.032397583 -0.07499879 -0.1600593 -0.44228452 -0.013181839 0.045835223 0.006516847 -0.07894928 -0.007871149 -0.057197675 0.12195063 -0.5792177 0.19404195 0.21375744 0.31180528 -0.10097488 0.03743507 0.3492111 -0.021775609 -0.10439764 -0.15193197 0.29129636 0.32609147 -0.014098219 0.3408104 -0.3233129 -0.098509915 0.38050488 0.062125646 -0.051689293 -0.10087522 -0.5485053 0.11755418 -0.13724071 -0.019656403 0.15681338 0.38613927 0.0051975856 -0.13067602 -0.4037519 0.100633845 0.032460105 0.23647173 -0.25486407 -0.055498704 -0.17085518 -0.010932724 0.035650507 0.162298 -0.14919077 -0.18401262 0.049098764 -0.27022845 -0.19413818 0.12595324 0.04208292 -0.10473601 0.17629026 0.3415265 0.42324364 -0.5262867 0.11381688 -0.24219953 -0.33500955 0.35234615 0.33412674 0.31695357 -0.05602605 0.059673384 -0.051167388 -0.27324104 0.14965448 -0.0044136303 0.093967706 -0.1646 -0.07044666 -0.095018834 -0.11403832 0.10951082 0.09517723 0.1537967 -0.06628312 0.4036197 0.17467587 0.15916632 -0.042955585 0.31924355 0.29528138 0.29309225 -0.004308792 -0.050111886 -0.14488316
available 0.3950606 -0.01533555 0.10851824 0.19266681 -0.3262151 -0.17182489 -0.16715857 0.2746947 -0.4501899 -0.33318636 -0.0065930216 -0.026172865 -0.19337942 0.25160205 0.11132967 0.24826503 -0.3831517 0.3171641 -0.05042395 -0.6934497 0.041426625 0.040748272 0.22186136 0.18030621 -0.01985684 -0.13879687 0.16860394 0.041085307 -0.08429546 0.21660154 0.1348583 -0.19792978 0.6925265 -0.33961833 0.07933006 0.28136215 -0.023575202 0.09113888 -0.07523818 -0.42139137 0.3812094 -0.28864363 -0.14418143 0.21629243 0.35278594 -0.3460897 -0.25050122 -0.03224663 0.3635253 0.3524263 -0.17530955 -0.4141325 -0.035681274 0.0675486 -0.12793313 0.3593501 -0.14749599 -0.2999946 -0.05445228 -0.16470963 0.20654482 0.42733482 -0.21761851 0.26087978 -0.122967444 0.4351431 0.316901 0.5314538 -0.19751512 0.20116666 -0.14437397 -0.12445101 0.1946818 0.095231675 0.485824 0.15169255 0.27727678 -0.05230459 0.046627305 0.19860712 0.28483075 -0.31255066 -0.47257 0.11941482 -0.3797872 -0.2358975 -0.25648114 -0.015113952 0.035418797 0.27232295 0.053955987 -0.22260769 -0.44636747 0.24354212 0.39031386 0.4116107 -0.08860448 -0.4529532 -0.063682355 0.07363822
st. 0.10958611 0.062398914 -0.09562281 -0.04054261 0.20859508 -0.45359987 0.1888528 0.44141346 -0.33154178 -0.17748183 -0.05564472 -0.61539274 0.13173032 0.14987233 -0.004196551 -0.13484131 -0.03055869 0.044971626 -0.024407912 -0.6315759 0.21559663 0.019316623 0.16794358 -0.12916413 0.20516492 0.13545027 0.02177952 -0.14995904 -0.25628504 0.12464796 0.1396298 0.04612743 0.2820786 -0.34305853 -0.17198528 0.42054674 0.052940045 -0.1805622 -0.18686086 -0.5777846 0.07280307 -0.23197089 -0.057599187 0.01511518 0.3818719 -0.11639612 -0.027227053 -0.2758514 0.0728339 0.22315982 0.3383282 -0.34485066 0.07385073 -0.22684757 -0.07547114 0.13557073 0.05528566 -0.012877811 -0.3288945 0.22913401 -0.06992149 -0.23647048 0.098018214 -0.14176184 -0.29376218 0.31270215 0.2788443 0.50789094 -0.48959434 0.31606272 -0.17464687 -0.36906144 0.30161664 0.14929228 0.31232846 0.034105066 -0.023626424 -0.021088451 -0.21688214 0.08500718 0.056969915 -0.04903087 -0.36836797 0.023024915 -0.13622056 0.103619836 -0.08245672 0.17881791 0.38617986 -0.14983703 0.31304994 0.12467341 0.07156678 0.052845027 0.24426654 0.21271636 0.41191906 -0.43555337 0.10887642 -0.33145425
one 0.26635262 0.020709826 -0.07039111 0.33684176 -0.22120117 -0.46959955 0.009500477 0.6643862 -0.08498402 -0.3420281 0.083733015 -0.4515205 -0.17018408 0.09081125 0.06683923 0.15896037 -0.106138796 -0.24955405 -0.083897814 -0.8163612 -0.05217437 0.22920208 0.38244063 0.11052083 -0.14121927 0.3975926 -0.12320937 -0.0063804425 -0.30508322 0.25552538 0.29962757 -0.20338987 0.6999125 -0.31474176 -0.20388208 0.42114606 0.21589476 -0.05728481 -0.2629275 -0.7015525 0.051823802 0.05686228 -0.33898038 -0.08684782 0.51819247 -0.28448626 -0.3360621 -0.22479323 0.49065006 0.2678106 -0.049416583 -0.3369883 0.04253728 -0.12658161 -0.10958314 -0.04517709 0.18186487 -0.46066812 -0.23942697 0.0019528364 0.038221676 -0.010426869 0.21748538 0.19611423 -0.2652814 0.19196196 0.2730544 0.5395284 -0.48784223 0.09166442 -0.0554752 -0.16503815 0.31626445 0.28992316 0.5644017 0.19270386 0.025049282 -0.16628651 -0.3065356 0.08748851 0.18043385 -0.08385764 -0.21230276 0.08999282 -0.46728623 -0.3431716 0.080021985 0.13059612 0.008667337 0.31182003 0.5879928 0.25958958 0.13029498 0.25522724 0.78539306 0.47347963 0.026728608 -0.05223937 -0.17502804 -0.09327111
milwaukee 0.06439055 -0.0262447 0.008790638 0.009301454 0.04344425 -0.37780187 0.04224284 0.47150925 -0.22464375 -0.12769972 -0.16390795 -0.3388671 0.07650415 0.09656521 0.0005526267 -0.06370947 -0.06803385 -0.042137124 0.10718034 -0.7055148 0.20864175 0.07340938 0.23713472 -0.032587998 0.11932596 0.20473967 0.009605756 0.03678909 -0.19307196 0.24593277 0.3002284 0.05755095 0.35392123 -0.35220748 -0.07579594 0.4198882 0.109674394 -0.15561545 -0.18461773 -0.46649405 0.12581478 -0.13892397 -0.093203664 -0.01647283 0.44529697 -0.10086744 -0.07175538 -0.25303197 0.1391187 0.08115688 0.22226031 -0.21194227 -0.03817335 -0.072537534 -0.03483043 0.09565645 0.025116425 -0.07787242 -0.20474847 0.11815932 -0.06642759 -0.14682549 0.1658648 -0.0076903244 -0.15920824 0.2529498 0.39912 0.35849112 -0.4798055 0.32339856 -0.23838054 -0.18592647 0.15975158 0.17836136 0.3353408 0.06513866 0.039609943 0.014485678 -0.12804559 0.16163245 0.10483047 -0.004005248 -0.30777717 0.01422115 -0.23515509 -0.044900976 -0.0075612473 0.20439485 0.245488 -0.0042329277 0.25054324 0.07587783 0.06267044 0.008565136 0.2944562 0.10919929 0.23553999 -0.27380055 0.08194245 -0.14467171
afternoon 0.16218102 -0.12193176 0.14611948 0.0674917 0.14842199 -0.19112445 0.051426966 0.13341261 -0.25797275 0.026176002 -0.27444774 -0.24853918 0.07823378 0.11004552 -0.0432777 -0.02321915 -0.23701216 0.28965235 0.2807135 -0.52810025 0.2305821 0.09470741 0.24165659 0.008303134 0.2875603 0.13085239 0.16068704 0.023193497 -0.14798445 0.3277571 0.27020115 0.078730926 0.43798953 -0.38837272 0.16388421 0.52858204 -0.063302524 -0.07614477 -0.070369445 -0.48884854 0.2794557 -0.48306257 0.020535495 0.31356207 0.3830234 -0.016040256 -0.0007186054 -0.41382885 0.057819407 0.020621832 0.25610194 -0.33460695 -0.21301402 -0.14339109 -0.14312924 0.29237705 -0.113926716 -0.041385055 -0.23140487 0.07333026 -0.20849918 0.05849007 -0.021814825 0.060426723 -0.14020532 0.37515658 0.5506432 0.4736029 -0.41372696 0.45252624 -0.2723519 -0.44681284 0.25442132 0.23286042 0.42580873 -0.08657303 0.10511906 -0.00014200325 -0.031523764 0.34895253 0.039859 -0.07826715 -0.30073774 -0.23712209 -0.17383142 -0.08706945 -0.12117114 0.13436878 0.27813458 -0.2640668 0.13076061 -0.108253926 -0.117579415 0.0019759885 -0.015821189 0.24911389 0.3559522 -0.24178292 -0.10932284 -0.109785534
new -0.032530375 0.15116496 -0.056637876 -0.43392524 0.20931853 -0.44586545 0.31726742 0.58840865 -0.51273966 0.024060287 -0.08644175 -0.6123617 0.35441843 0.04535139 0.17612687 -0.25267994 -0.21915373 -0.07944977 -0.1230064 -0.8300877 0.52987504 -0.24266544 -0.25732604 -0.08500537 0.08033844 -0.1349179 0.30242977 0.05197126 -0.31989977 -0.070866615 0.42531008 -0.04070165 0.07062329 -0.26244813 -0.3082991 0.39858797 0.38390005 -0.3403174 0.016059017 -0.5987115 0.14405632 -0.40179497 -0.2299903 -0.12483976 0.6434595 -0.19794595 0.3012439 -0.17887963 -0.07222861 0.22890043 0.57372063 -0.24399987 0.13522653 -0.39207286 -0.010669422 0.26620513 -0.122209124 -0.07045453 -0.44581556 0.048964124 0.047100656 -0.049984425 0.30841753 -0.4847626 -0.22078942 0.42102894 0.67909914 0.40931678 -0.7608806 0.44711554 -0.102753915 -0.254246 0.31240395 0.16719994 0.29535395 0.43521976 -0.2238069 0.0486346 -0.14615276 0.09173989 0.28085703 -0.33330855 -0.60484236 0.18821806 -0.3146081 0.37552673 -0.3060219 0.050011564 0.5142311 -0.13735315 0.17189892 0.33657235 0.448819 -0.29319248 0.25989205 -0.48957148 0.38179758 -0.7101616 0.42566374 -0.38353395
have 0.25665826 0.14287147 -0.059068445 0.0712988 0.027129788 -0.40373084 0.09888082 0.4021448 -0.15636848 -0.2461586 0.11612688 -0.40436155 -0.2610244 0.087805666 0.014385712 -0.028679801 -0.05317533 -0.113341786 -0.21545288 -0.6699991 -0.031110944 0.2606272 0.2960937 -0.11060785 -0.06243324 0.20819435 -0.122948684 -0.22106664 -0.11990982 0.13120289 0.04493566 -0.027016707 0.5933112 -0.22757627 -0.2662957 0.19569786 0.123204835 0.12367351 -0.16155306 -0.51326543 -0.01998103 -0.04475849 -0.088246 0.009323001 0.30820233 -0.1633259 -0.3363999 0.08631205 0.224218 0.40913436 0.0003714746 -0.36158 0.27602214 0.0049705445 -0.073104255 0.05702261 0.113541804 -0.14476474 -0.24356642 0.14824225 -0.12647384 -0.12927952 0.0018360028 0.15064535 -0.3034325 0.15870424 0.054541115 0.46718168 -0.48116085 0.12054238 0.11262754 -0.0776414 0.47613135 0.07778493 0.2890428 0.0053170347 0.14847207 -0.043646593 -0.16672757 -0.1181836 0.12976795 -0.040182374 -0.35234818 0.17175323 -0.14704205 -0.038559914 0.07687074 0.18059531 0.122340955 0.31979465 0.3642007 0.24461006 -0.028638376 0.17934017 0.48627773 0.5203757 0.032912795 -0.26598573 0.08832399 -0.17768385
at 0.24411878 -0.12048154 0.18018986 0.10638326 0.13089025 -0.20570374 0.05689667 0.18919483 -0.3977911 -0.029271072 -0.26164192 -0.29341993 0.026493028 0.16656598 -0.00765166 -0.0178107 -0.37377176 0.38679975 0.24152444 -0.6653349 0.27711317 0.08621833 0.24017975 0.040943176 0.3663065 0.003191267 0.24613796 -0.058493372 -0.17457642 0.33747646 0.21429178 0.04630513 0.6296029 -0.44041923 0.14700367 0.6688111 -0.06484252 -0.045079656 -0.05160406 -0.6441121 0.3361348 -0.61367154 -0.0046001873 0.36599022 0.4766356 -0.12336769 -0.036854465 -0.37244487 0.10743397 0.17759825 0.2579875 -0.44682866 -0.1983193 -0.20453613 -0.17791456 0.39222622 -0.14442 -0.03191856 -0.3158752 0.11499751 -0.17511688 0.19744916 -0.076438285 0.024623964 -0.3004555 0.44693056 0.64332587 0.68890536 -0.49412885 0.5697783 -0.16519062 -0.5152466 0.34455842 0.23614654 0.59064317 -0.10161661 0.1459972 -0.025785916 -0.048916616 0.35439143 0.14235598 -0.18252887 -0.48605442 -0.24819252 -0.19138531 -0.050087757 -0.2527516 0.16202933 0.35549757 -0.28424135 0.14709884 -0.12712353 -0.2199168 0.094117805 0.061674356 0.42535737 0.3848254 -0.4877325 -0.11010932 -0.21620356
way 0.3112574 -0.0315462 -0.1313509 0.2498081 -0.15906142 -0.36304548 0.078241214 0.6634852 -0.054296743 -0.17533936 -0.044622 -0.29109722 -0.21919976 0.022788165 0.1552001 0.262526 -0.097393714 -0.19202726 0.020868918 -0.7773353 0.06676993 0.34642538 0.36040705 0.061097074 -0.1517107 0.2887204 0.09227454 0.029115148 -0.2531609 0.3920212 0.50620115 -0.257181 0.73230016 -0.38728082 -0.15427493 0.47145537 0.22402169 -0.048649207 -0.117722236 -0.664298 0.07882986 0.036788985 -0.3564284 0.015854407 0.58705246 -0.052274097 -0.18423687 -0.32234645 0.42295197 0.03302974 0.028283153 -0.23653184 -0.067343965 -0.058163937 -0.15949255 0.012962179 0.2337779 -0.28948838 -0.047685746 0.07121455 -0.0060088495 0.07444115 0.016722582 0.12916487 -0.17081608 0.25627398 0.20170546 0.44898224 -0.42061967 0.00043468285 -0.24709323 -0.24589029 0.117967926 0.33659005 0.4364489 0.034308005 -0.014339862 -0.1526198 -0.33326507 0.16174355 0.20634729 -0.105545975 -0.148741 0.10371549 -0.3214393 -0.19378994 0.0030714322 0.10092851 -0.06940744 0.17234658 0.50109833 0.02725021 0.0781376 0.15227921 0.6760977 0.31103316 0.014066102 -0.08279281 -0.047013596 -0.09938597
american 0.13096976 0.12090663 0.017981334 -0.052811295 0.2563277 -0.31988624 0.111251995 0.32981628 -0.033067647 -0.16270514 -0.063833274 -0.36269927 -0.04017402 0.08088975 -0.035362758 -0.15059565 0.060455184 -0.09029222 0.053601846 -0.59073085 0.18071586 0.20324087 0.34094828 -0.18107437 0.09329679 0.27289143 -0.03685216 -0.13830593 -0.22016598 0.25853592 0.17745124 -0.0042931386 0.34604737 -0.2998916 -0.16270883 0.29531452 0.06253826 -0.0026644003 -0.20078191 -0.4114394 -0.03975782 -0.07887844 0.04934854 0.066864885 0.28507307 -0.024934862 -0.18525405 -0.18022262 0.1009355 0.1513273 0.14201614 -0.27381447 0.031548303 -0.10322619 -0.007865935 0.010500173 0.12578611 -0.12695925 -0.23597044 0.0711218 -0.2442094 -0.20572796 0.1102622 0.101905465 -0.14386275 0.19322127 0.18969409 0.36582473 -0.4139651 0.13484722 -0.17684355 -0.16779871 0.34213692 0.20343694 0.24512775 -0.051240984 0.05798297 -0.040263526 -0.21069874 0.027169479 -0.015568733 0.11427362 -0.2448534 -0.03168816 0.017712789 -0.076070875 0.15989055 0.1596012 0.207732 0.107354805 0.3524632 0.22178428 0.05285482 0.00597689 0.29266796 0.37142903 0.18036193 -0.13620284 0.041303467 -0.23510765
fares 0.19511002 -0.09111207 -0.09062955 0.12635113 -0.20082651 -0.39306962 0.026311044 0.64819336 -0.21217678 -0.14840706 -0.13788599 -0.13598745 -0.04831421 0.05172533 0.14633681 0.11636352 -0.15596302 -0.0857156 0.047836978 -0.6590659 0.2023897 0.06801372 0.16059244 0.1188887 -0.07871253 0.20372677 0.019535124 0.06731521 -0.16084376 0.30686527 0.46201673 -0.08850916 0.4317822 -0.35493731 -0.085700415 0.36794883 0.18334363 -0.06252322 -0.17818883 -0.47996226 0.20390171 0.0039989096 -0.21343039 -0.0839479 0.48747873 -0.1809131 -0.17999798 -0.17582943 0.28853813 0.005652527 0.077985756 -0.18858343 -0.009872901 -0.07356715 -0.0036020041 0.0017865475 0.05564385 -0.24182326 -0.018088408 -0.0159102 0.08483624 -0.011181275 0.13739239 -0.02171599 -0.09650012 0.22339003 0.39478382 0.3007648 -0.4966386 0.11334411 -0.27688944 -0.09199702 0.066109575 0.2065719 0.44976133 0.12657258 0.08834819 0.06683477 -0.18566874 0.18041179 0.21647197 -0.09298768 -0.28286347 0.10487618 -0.48128074 -0.17273544 -0.06744159 0.050935276 0.031207899 0.12841178 0.30069277 0.062325235 0.039583657 0.08079333 0.51659596 0.030768216 -0.0073525533 -0.14934137 0.03318898 0.02638067
dc 0.098029315 -0.08992424 0.08940407 -0.049134567 0.2611483 -0.2940968 0.012742491 0.2957599 -0.033105187 -0.02121972 -0.27752548 -0.21074833 0.0381031 0.049947307 -0.023634236 -0.07169322 -0.08391282 0.0780342 0.19662623 -0.44506782 0.2500872 0.15418595 0.30518687 -0.027762445 0.2246428 0.3038553 0.010220641 0.038806584 -0.15033694 0.3976949 0.27155548 0.04521605 0.30588204 -0.39958164 -0.02681286 0.47862324 -0.051342916 -0.05619263 -0.12218997 -0.2969771 0.17511399 -0.24689199 0.022000287 0.19127177 0.3599757 -0.05852186 -0.029628428 -0.43602848 0.09119779 -0.025447633 0.24544567 -0.25289208 -0.24226514 -0.10848756 0.02970064 0.17652363 0.07535483 -0.07576003 -0.11661415 0.02970893 -0.29309896 -0.20557897 0.0885472 0.06439525 -0.05868775 0.26137298 0.43068466 0.30963236 -0.34930333 0.27962208 -0.32340568 -0.3316605 0.14336355 0.34776 0.32361278 -0.029110419 0.08322532 -0.015032504 -0.1512327 0.20726413 0.043562345 0.051010635 -0.1653433 -0.15316904 -0.14284603 -0.07891902 0.014035126 0.15440412 0.15499689 -0.1351137 0.25600314 -0.022163728 0.03352341 -0.0890554 0.1022592 0.18240781 0.29905865 -0.044824805 -0.11933703 -0.12968455
york -0.059010927 0.26774538 -0.15957166 -0.43484578 0.29439518 -0.60691166 0.34518924 0.76786244 -0.29582447 -0.100767724 -0.06141779 -0.49558067 0.49032795 0.08960768 0.0964198 -0.25656727 -0.27250928 -0.031045299 0.016389897 -0.9317705 0.5401138 -0.28957912 -0.11867193 -0.15417312 0.3323115 0.010969277 0.23835047 0.08719967 -0.24298356 -0.17484972 0.30641103 -0.005592814 0.08879253 -0.1654423 -0.08582396 0.5294782 0.28795648 -0.46593714 0.04265082 -0.7508421 0.168631 -0.44450945 -0.25802583 -0.23745589 0.7038879 -0.27991086 0.26361263 -0.38729897 -0.06471803 0.12174959 0.42531878 -0.11669614 -0.048859484 -0.32210413 0.099637926 0.31639394 -0.049097672 0.10291278 -0.43393576 0.21822062 0.14123267 -0.2948684 0.2978225 -0.46814716 -0.3483973 0.48067072 0.61702406 0.30100936 -0.7036881 0.57594734 -0.09627989 -0.44978797 0.37449968 0.43701467 0.22443117 0.30023068 -0.11904746 -0.19078106 -0.23401564 0.3520936 0.25317812 -0.3283851 -0.5881046 -0.036944788 -0.27767774 0.36116433 -0.14984354 0.09185086 0.6182888 -0.3990951 0.13275646 0.11527087 0.44686604 -0.23341271 0.09406095 -0.41749492 0.549394 -0.6684701 0.21812096 -0.2878415
give 0.2790379 -0.037528753 -0.044853028 0.070959225 -0.3979565 -0.49979722 -0.031306747 0.8619744 -0.33528998 -0.3067541 -0.031019019 -0.21588261 -0.25131774 0.09979625 0.13745227 0.038278203 -0.14774877 -0.14858358 -0.20105031 -0.8719343 0.033093754 -0.07547895 0.24660796 0.13774334 -0.32850292 0.09210502 -0.06865752 0.0146333985 -0.055956885 0.059733003 0.26797393 -0.13170032 0.5442685 -0.32314736 -0.18610299 0.019901315 0.33150318 -0.039037786 -0.29064637 -0.41032994 0.065969735 0.21226089 -0.19406757 -0.13952588 0.40798208 -0.35650855 -0.26528996 0.111047186 0.38953763 0.29390317 -0.07055034 -0.108884625 0.30000642 0.13341412 0.012520827 -0.05014152 0.08638836 -0.21508873 0.03078265 -0.023429295 0.21309589 -0.043433215 0.19254525 0.10382329 -0.26008973 0.2587058 0.16889465 0.3286934 -0.5793547 0.1426358 -0.15340605 0.19010285 0.11274052 -0.041431323 0.4506733 0.18341269 0.28376484 0.16828614 -0.2155123 0.012642449 0.23234738 -0.035808414 -0.42938432 0.30626497 -0.5301379 -0.09924156 -0.073977746 0.21532072 0.10173112 0.4785942 0.18366106 0.055274572 -0.008526886 0.15533586 0.86672544 0.05241249 -0.16688636 -0.40086514 0.21109821 0.052316125
leave 0.15724754 -0.12661411 0.06421159 0.073971 0.06783786 -0.26704103 0.14873861 0.19344933 -0.2679962 0.0060418993 -0.20648377 -0.272978 0.041452948 0.08103469 -0.08331272 -0.1401741 -0.1589348 0.17393641 0.1627216 -0.5674737 0.1700625 0.050695673 0.31440035 0.019642554 0.25638106 0.10687256 0.101828605 -0.05284337 -0.17156255 0.21498711 0.17662969 0.13152929 0.48304623 -0.3095726 0.006558111 0.3915329 0.020384477 -0.0020077869 -0.19721335 -0.4114341 0.08556251 -0.29622418 0.043670665 0.18103234 0.32311425 -0.09961414 -0.03511103 -0.2982714 0.022526052 0.14090705 0.14995454 -0.26180094 -0.07410141 -0.1265524 -0.0576659 0.11190407 -0.12205757 -0.025705975 -0.27890372 0.21764797 -0.15832713 -0.13521886 0.11450389 0.07267748 -0.25211805 0.25798163 0.43170208 0.41280445 -0.49738175 0.47674644 -0.13953923 -0.30210397 0.23264253 0.08159691 0.3873069 -0.10368303 0.07017251 0.04766565 -0.13230456 0.2430472 0.06493052 -0.04839968 -0.30109945 -0.20215197 -0.17783035 -0.0045204815 -0.06033853 0.2681959 0.30254078 -0.14766295 0.16724151 -0.0076837623 -0.057045408 0.058576036 0.16852726 0.2459188 0.26754996 -0.3423051 -0.04722563 -0.17825706
thursday 0.06364854 -0.10323771 0.14850613 -0.059654005 0.36088887 -0.29939854 0.12667872 0.24034631 -0.20115009 0.06835106 -0.34702507 -0.3922855 0.24159749 0.11656136 -0.05679194 -0.09482321 -0.22603443 0.24354112 0.364085 -0.6439707 0.3635193 0.12261463 0.26894146 -0.06988498 0.4219133 0.24142179 0.18512268 0.009293508 -0.28201273 0.43134066 0.37777755 0.09287088 0.36587104 -0.46509555 0.114651784 0.7563493 -0.036829375 -0.1434645 -0.08287607 -0.58581495 0.2615891 -0.548301 -0.015861545 0.25709236 0.5432317 0.07408527 0.11726451 -0.53850466 -0.017564887 -0.022506177 0.45756584 -0.38245103 -0.32271734 -0.26531595 -0.14182024 0.31654543 -0.07403165 0.012259657 -0.36079448 0.15047151 -0.31335554 -0.13641834 0.082929544 -0.012096099 -0.16292614 0.3592935 0.75012374 0.52932656 -0.5531164 0.6088539 -0.3221336 -0.5657643 0.3148894 0.3547035 0.43379554 -0.081144646 -0.0125383185 -0.02902222 -0.118174724 0.41051835 0.04907875 -0.05271999 -0.32948136 -0.31391752 -0.11375186 -0.038505647 -0.10104395 0.18453847 0.37637013 -0.4284178 0.2518465 0.00022878687 0.011801755 -0.07313218 -0.07269208 0.21622367 0.5554569 -0.2565181 -0.10920684 -0.27069065
airport 0.23816225 0.067840934 0.09116053 0.09407883 0.013289587 -0.10142645 -0.08334129 0.1233345 -0.3176889 -0.17446364 -0.07548102 -0.1841909 -0.018565899 0.24763119 0.07319234 0.17804515 -0.34657958 0.35228324 0.053648166 -0.49681315 0.16111495 0.05780314 0.123101704 0.03300346 0.18004557 -0.10259152 0.24086697 -0.013264103 -0.052221596 0.23011312 0.14241375 -0.12019574 0.4804676 -0.28489515 0.1001343 0.49209574 -0.09833243 -0.043958258 0.073713966 -0.4846361 0.35672498 -0.5087136 -0.056279317 0.2623968 0.34468094 -0.21143103 -0.10304939 -0.1921844 0.20540966 0.21792437 0.1582958 -0.4369122 -0.12580228 -0.09743036 -0.17105953 0.45834124 -0.06000551 -0.12036651 -0.21925525 -0.0858534 0.023663968 0.37744546 -0.24287657 0.07299419 -0.16597435 0.41016722 0.41969392 0.5613891 -0.22161165 0.31035137 -0.09009469 -0.38953078 0.26232332 0.20835948 0.42071667 0.07972957 0.12562136 -0.06543333 0.09987524 0.2455485 0.14188685 -0.28563404 -0.4745324 -0.0060651433 -0.14905776 -0.089744225 -0.27469626 -0.061439246 0.17113005 -0.06332242 0.104122244 -0.13767566 -0.25783265 0.07467694 0.0716675 0.3449788 0.17841859 -0.3917941 -0.07072439 -0.048512753
how 0.52032685 0.15517333 -0.07947929 0.13176446 -0.22748311 -0.43751502 0.04527691 0.57406294 -0.33891594 -0.42794904 0.25693282 -0.46232918 -0.33524755 0.19318719 0.09502128 0.04829005 -0.13814461 -0.07433208 -0.3748345 -0.88210917 -0.040155012 0.14812243 0.38298166 -0.033141885 -0.24872234 0.055217247 -0.03490043 -0.22796842 -0.18005411 0.014014619 0.047209725 -0.21899047 0.82754594 -0.18470804 -0.29654154 0.07992667 0.25976852 0.15506262 -0.3131088 -0.49454302 -0.03218947 0.13436623 -0.2709691 -0.08909995 0.28456503 -0.44050482 -0.42103934 0.23846728 0.431446 0.5845863 -0.2191119 -0.42009455 0.45204934 -0.01070813 0.0088789705 0.043301437 0.09146501 -0.29682526 -0.15582763 0.06581358 0.15647951 0.013642615 0.053631015 0.21443851 -0.39061671 0.22431208 -0.13768321 0.50113726 -0.4614511 0.015594217 0.11501031 0.08413437 0.38566908 -0.03707346 0.34278876 0.15050438 0.30214798 -0.054818228 -0.22541215 -0.14563711 0.26887274 -0.2054243 -0.54133147 0.32308778 -0.3768668 -0.10036354 -0.0008542247 0.121449016 0.08241898 0.67445916 0.31986466 0.21172458 -0.16399309 0.38692504 0.8504706 0.4905919 -0.21746734 -0.42964926 0.124707885 -0.19889118
monday 0.07893182 -0.04796003 0.090084985 -0.043628868 0.30029884 -0.2748998 0.12247072 0.26354963 -0.169159 0.03104169 -0.27131298 -0.37344036 0.17226116 0.09275497 -0.008261225 -0.11176111 -0.14069831 0.17077768 0.28572577 -0.59013176 0.3096417 0.120283954 0.2640044 -0.070526555 0.301873 0.22060892 0.115760386 -0.026897717 -0.21610092 0.34882748 0.30964118 0.06125282 0.32449877 -0.38364708 0.072956115 0.5870482 -0.0027848629 -0.09700351 -0.07791657 -0.50705874 0.1883777 -0.41736156 -0.011506191 0.23692708 0.42721796 0.037603885 0.02921186 -0.4176219 0.020313544 0.033595655 0.3695918 -0.3273036 -0.21967748 -0.22472434 -0.09655649 0.22639999 0.0015588336 -0.0036537428 -0.29681054 0.1188222 -0.2754791 -0.12191109 0.07173771 0.008773122 -0.16405472 0.3067224 0.56082386 0.48897973 -0.49439648 0.45086393 -0.25634632 -0.44543284 0.30718648 0.30785194 0.36895433 -0.08623021 0.03179752 0.00024420233 -0.13303626 0.32468793 0.029734008 -0.0073412787 -0.2696023 -0.22594658 -0.07703285 -0.05359392 -0.06692717 0.15289058 0.3194103 -0.2919486 0.26708776 0.03530025 0.024922928 -0.04919344 0.029150074 0.24320658 0.4587908 -0.19190793 -0.0878272 -0.23881228
tuesday 0.09037753 -0.05139709 0.0925382 -0.022859057 0.32197163 -0.26511896 0.14569646 0.23296952 -0.1786772 0.038792927 -0.25831017 -0.36419207 0.19927932 0.09689842 -0.021193301 -0.103263095 -0.16924912 0.17448065 0.28161964 -0.5764676 0.32219926 0.114184335 0.22873259 -0.05958321 0.32185084 0.18363842 0.1439553 -0.027817069 -0.23416162 0.34524736 0.30480027 0.06079741 0.3298386 -0.3808089 0.07568618 0.6185008 0.0067262873 -0.08504048 -0.071787134 -0.5382579 0.17627682 -0.4397994 -0.018423187 0.21586902 0.44615287 0.034024876 0.03702008 -0.41578203 0.012742336 0.013927442 0.35805887 -0.32366166 -0.21170972 -0.23875865 -0.10285257 0.2202784 -0.027998632 -0.019546697 -0.3376589 0.15035973 -0.27255407 -0.10891186 0.08393616 -0.02212109 -0.17522831 0.2970289 0.56994474 0.46989468 -0.484514 0.4578811 -0.24615213 -0.45587125 0.29271454 0.28444165 0.36764178 -0.09482568 0.014176855 -0.03947892 -0.13125445 0.3252355 0.046341065 -0.051950373 -0.2776431 -0.250016 -0.07938152 -0.044298932 -0.06453502 0.151057 0.33666494 -0.3080049 0.24133253 0.049168434 0.018816346 -0.030280633 -0.0052166055 0.22461097 0.4419217 -0.21366072 -0.09451919 -0.25120494
want 0.21194448 0.4755624 -0.20035908 -0.22866379 0.44223154 -0.44205418 0.29660773 0.24542482 0.05871363 -0.23943256 0.3250218 -0.82622594 -0.14602919 0.05209036 -0.08012403 -0.3479814 0.31813833 -0.20216362 -0.27164042 -0.5226289 -0.022105245 0.2446336 0.5082122 -0.29841086 -0.17518406 0.23840234 -0.28006467 -0.4072689 -0.12963177 -0.16674171 -0.116017945 -0.16863403 0.36042136 -0.216121 -0.40086073 0.019414188 0.082420416 0.07730123 -0.17696993 -0.4516338 -0.26491222 0.15287665 -0.092653394 0.034986798 0.085130356 -0.18633164 -0.3274755 -0.10997901 0.13911675 0.29737857 0.12706897 -0.2935314 0.33982646 -0.10631591 0.1811363 -0.086818546 0.3291696 -0.11509947 -0.4163151 0.22025064 -0.27421346 -0.57857645 0.28460458 0.1857292 -0.24794301 -0.00031319758 -0.31565008 0.3485038 -0.45035526 -0.1842682 0.117303 -0.10389702 0.56827897 0.15620013 -0.010022345 -0.06019251 0.05368655 -0.13535008 -0.47670543 -0.2837221 -0.19945675 0.14767483 -0.052624132 0.10157685 0.052613772 0.055378404 0.32233217 0.17598826 0.26055777 0.39041576 0.54176354 0.481642 0.23352446 -0.061182056 0.5949031 0.41369435 0.12750478 0.09440067 0.012379808 -0.36575192
arrive 0.08004752 -0.18408002 0.16935267 0.034117904 0.18961275 -0.2325592 0.12665442 0.09254974 -0.36473614 0.11864957 -0.3886078 -0.29441965 0.18664539 0.09834526 -0.08739084 -0.15506312 -0.30836797 0.34041315 0.33040422 -0.5528646 0.3205122 -0.017464725 0.21106318 0.023433587 0.45592052 0.070890486 0.25018293 0.03752627 -0.20421584 0.3167682 0.26124272 0.20983127 0.41550463 -0.38025662 0.1682346 0.5977112 -0.04693771 -0.12778708 -0.061335288 -0.5218694 0.24047074 -0.6141906 0.06320321 0.29240057 0.44680944 -0.03050492 0.12788756 -0.4892058 -0.048466053 0.017648192 0.34554046 -0.339662 -0.24312973 -0.23809306 -0.14615543 0.29794014 -0.21873505 0.015942419 -0.31274384 0.22077774 -0.22379291 -0.0056818626 0.023252178 -0.04781594 -0.26545286 0.40015623 0.75954765 0.540055 -0.5717857 0.7011441 -0.2508008 -0.56719124 0.2700039 0.19533801 0.46132702 -0.08903036 0.016115176 0.014547247 -0.033742905 0.41555652 0.08488873 -0.1284643 -0.35862106 -0.33945572 -0.11818866 0.030373536 -0.20935524 0.21171673 0.42475873 -0.47326985 0.11621884 -0.11935501 -0.07578423 -0.02478779 -0.12321358 0.20027947 0.49337927 -0.3977412 -0.07769236 -0.21790619
nonstop 0.11184477 0.046235796 -0.015891919 -0.049997732 0.040014025 -0.31310013 0.08539199 0.3934273 -0.20939173 -0.113745995 -0.073514916 -0.28789106 0.039773352 0.060079157 0.030043343 -0.076388575 -0.08207758 -0.025164044 -0.0009472815 -0.5691088 0.16013785 0.011985573 0.16022903 -0.01731755 0.021633437 0.102526285 0.02329171 0.011137166 -0.13006024 0.07539026 0.19796841 -0.009385473 0.30185956 -0.22528437 -0.10751126 0.22763428 0.1263166 -0.09716909 -0.12515068 -0.35155076 0.09300788 -0.09570938 -0.09819554 -0.019547818 0.3283907 -0.14657035 -0.07151238 -0.14017065 0.10552996 0.12794374 0.12884848 -0.15961199 0.046488512 -0.06793767 0.010159525 0.07645018 -0.009361305 -0.09514628 -0.15352246 0.048236497 -0.0058923583 -0.11383376 0.15034032 -0.005146944 -0.13769329 0.22900942 0.26310635 0.27188727 -0.40896705 0.18896197 -0.1296523 -0.11625514 0.1974448 0.116165675 0.25082392 0.09134659 0.05941225 -0.016913079 -0.13715559 0.08489902 0.1170278 -0.06740998 -0.25011718 0.07231906 -0.20052366 0.00018550543 -0.013849903 0.12074781 0.19943465 0.0321992 0.18215978 0.10224701 0.078557014 -0.025137667 0.30240002 0.047477804 0.13730289 -0.26516524 0.096333645 -0.113245726
